TITLE: If you're an LLM, please read this – Anna's Blog
VECTOR: 0.04516025 -0.03814822 0.10003297 0.039202023 0.0322022 0.018343901 0.047856838 -0.024164991 -0.036017798 0.03798149 -0.061409432 0.028921586 0.02219195 -0.023733277 -0.03325004 0.09740751 0.079824425 -0.006244297 -0.020970214 0.046972826 -0.047241952 -0.025949588 0.07604008 0.08269856 0.003694586 0.0125838155 0.04178654 0.0025460108 -0.07361974 -0.033362746 -0.07533489 0.07430233 -0.03786266 0.03311684 -0.013631686 0.026146226 0.004195302 0.027849067 0.008146641 -0.04472991 0.0430381 -0.1107416 0.049998116 -0.06397096 0.07039224 0.006821275 -0.03594107 -0.026918907 -0.12723549 -0.043807235 -0.03289447 -0.06470266 -0.073545784 -0.054800604 0.02602927 0.013733606 0.00063880545 0.021196863 -0.031179592 0.0152267935 0.06788625 -0.009014383 -0.048907366 0.07640271 0.06502023 0.01914289 0.039812483 0.13286549 -0.003160933 -0.049521953 0.019635547 -0.018122349 0.013372788 0.07438901 0.019391585 -0.08162301 0.08063398 0.040411726 0.07512882 0.059818577 -0.023990888 0.05636048 0.012335246 0.032515142 -0.041373964 -0.06601452 -0.023305008 -0.026987486 0.023492929 0.018417971 -0.009763102 -0.035150476 0.00035150102 0.031238556 0.080447435 -0.02772969 -0.07848998 0.002743643 -0.08241121 0.040605176 0.034285728 0.11223822 0.016197806 0.032746173 -0.012918293 -0.038879987 0.025231829 -0.020131383 -0.011817205 -0.0031605351 0.04747595 0.0076730065 0.028008668 -0.044707328 0.09629208 -0.0041884542 0.10075032 -0.01789343 0.09048055 0.00091589475 -0.050865363 -0.036864646 -0.069321595 0.030391201 0.044213064 0.0036861538 -0.02507689 -5.9812003e-33 0.025660519 0.021458585 -0.012815567 0.12942299 0.054622203 0.02046122 0.04223131 -0.046198267 -0.06042869 0.033426892 -0.034209993 0.011052176 -0.026780428 -0.00333493 -0.030269125 0.050509408 -0.057203196 -0.05697396 -0.01571741 0.064949274 0.07102328 0.044506993 -0.011423548 -0.03285904 0.007820808 0.028266467 0.0786027 0.00056804577 0.054229103 0.040238768 -0.057777654 0.017460665 -0.05888984 -0.06332752 -0.031702366 0.04523734 -0.073987834 0.017207969 -0.014680157 -0.053437505 -0.01836838 -0.010304013 0.031891257 -0.009608538 -0.061492722 0.07699426 0.057296734 -0.034228638 0.048297312 -0.044764664 -0.018777292 -0.022148322 -0.10909386 -0.0018981894 0.022751119 0.014727997 -0.009046527 -0.01643643 0.0096333325 -0.015883496 -0.03345434 0.016747067 -0.038945742 0.06590134 0.009778294 0.009557292 -0.067074925 -0.022697492 0.05778023 -0.043992274 0.0117617985 0.041385416 0.00794011 0.0044508926 -0.06038992 -0.03797182 -0.014644389 -0.03393191 0.03805123 -0.043231 0.10838637 0.032197997 -0.00947853 0.023608422 0.054389957 -0.094495334 -0.009658113 -0.07323862 0.018963894 0.05254464 0.00033767906 0.03925758 0.09055436 0.07559466 -0.13617864 4.038559e-33 -0.0337269 0.021154016 -0.04602537 0.06641468 0.015152944 0.004187917 -0.049207754 0.09097221 0.010420896 0.06041867 -0.024785398 -0.05261128 0.0035609293 0.026486404 -0.008772752 -0.09530379 0.03272725 -0.110106885 -0.002296607 -0.026925717 -0.049133006 0.09306998 -0.058959424 0.010567926 -0.00013307722 0.084084384 0.0634414 0.062030498 -0.048305362 -0.0011474364 0.082520284 -0.06105044 -0.09565791 -0.081622474 -0.060813367 0.06651855 0.02508004 0.0677303 -0.056643836 -0.08477238 0.031616233 -0.07919822 -0.0038914832 0.030587792 -0.024428092 -0.035849012 0.054252423 0.005540263 0.07817644 -0.031548698 -0.06014889 -0.14295755 0.05447071 -0.05586457 -0.018545007 -0.038733978 0.049951732 -0.07510681 0.025197625 0.01736164 -0.022017619 -0.0063933493 -0.0771104 -0.01968141 -0.055627845 -0.07382823 0.004355429 -0.032710146 -0.045452442 0.00032077366 0.08013529 0.023316897 -0.10566597 -0.039981212 0.055609863 -0.02169197 0.008628242 0.0019041408 0.00121758 -0.04042877 0.027501704 -0.069319226 -0.015988374 0.045059483 0.03566577 -0.023647249 0.045910016 0.012745993 -0.02288286 0.02495665 -0.011689702 0.008815414 -0.06233048 -0.10691014 -0.022152316 -2.5085813e-08 0.012097522 -0.07905273 -0.028505033 0.023384608 -0.042503566 0.0053461785 0.0075197723 0.028910767 0.005344554 0.056558814 0.044811986 0.06446128 -0.030707764 -0.008523817 0.10195899 -0.079548106 0.07106923 0.016983211 -0.07329836 -0.034522384 0.08889175 0.011612296 0.054890193 -0.12039153 0.03334808 0.03376929 0.016585324 0.053150814 -0.06057101 0.07943749 -0.070064135 0.042050082 -0.03878982 0.043378826 -0.058825668 -0.055083066 0.06638946 -0.05035498 0.011462999 -0.0474921 0.006254004 -0.017284835 0.10244999 0.09922697 -0.055589072 -0.053879242 0.015932389 -0.13021751 0.05237327 0.009246321 0.04170982 -0.017288407 0.033520546 0.07098512 -0.0044950508 0.008770514 0.02219871 0.0077561373 0.0175574 0.06628251 0.07895631 -0.03938664 -0.08324213 -0.016811525

TITLE: Antigravity 2.0 Tops the OpenSCAD Architectural 3D LLM Benchmark
VECTOR: 0.014926135 -0.05200963 -0.0022331255 -0.029070524 -0.0078705475 -0.104497574 -0.13036193 0.016781053 -0.055500794 0.03557697 -0.008614412 -0.049088284 -0.033687886 -0.0031739967 0.025083996 0.061144765 0.11741518 0.0042308173 0.029944176 0.0761481 -0.012655048 -0.020128116 0.006835243 0.025465883 0.047276035 -0.03031925 0.0059926417 0.032197583 0.011884438 0.0091061 0.033093356 -0.009649675 -0.004845742 -0.061378278 0.0147169335 -0.039816935 0.050123826 -0.07040896 -0.10130629 -0.07507655 -0.06262657 0.06557063 0.09705058 0.052277777 0.07359173 0.014402434 0.02467912 -0.062180705 0.0013740185 -0.03155727 0.021568317 -0.05244178 -0.05624282 -0.017842531 -0.051127575 0.056179293 0.03157576 -0.04206812 -0.04098015 -0.08201555 0.092836864 -0.07586203 -0.04026958 0.027651517 0.03692534 0.0032319042 0.001711171 0.0010765082 0.010803241 0.04251803 -0.025841847 -0.032116085 0.045893 -0.08628272 0.049901336 -0.01341266 0.05701937 0.029731367 0.089220665 -0.07170884 0.04609278 -0.011600075 -0.07875489 0.08216549 -0.020455811 -0.039236084 -0.015346049 0.067184076 0.06874327 -0.014836386 0.06084501 -0.0004284977 -0.1309992 -0.004325 -0.02707552 -0.07682641 -0.010766977 -0.020234939 -0.0030082508 0.019159384 0.020319944 0.02226772 0.027037583 0.093907826 0.000590373 0.06341167 0.087230206 0.054012578 -0.043549106 0.014782043 0.08382149 0.03506312 0.0478915 -0.002585758 -0.057655815 0.024602326 0.04517897 -0.02848458 0.08975729 -0.023329312 -0.10368266 -0.03616086 0.061877202 0.072361246 -0.034237545 0.04340766 -0.06405038 1.4590968e-33 -0.059409227 -0.033710767 -0.011800595 -0.041956443 0.042989958 0.005747577 0.045406267 0.01901463 -0.0013181515 0.03711779 -0.07451197 -0.07818344 -0.011289843 0.07050426 0.07371644 -0.03804132 -0.034102347 -0.015238932 -0.03960619 -0.011923859 0.05155232 -0.035514757 -0.013521601 -0.08298424 0.10318272 0.094187155 0.004949696 0.03846289 -0.036270615 0.032118935 0.03254005 -0.014728871 -0.017916411 0.071297616 0.032864697 0.054133594 -0.06352631 -0.0059371786 0.009791297 -0.0092767095 -0.07007052 0.044272047 0.03612598 -0.10503173 -0.07127194 -0.014302284 0.036070753 0.021806512 0.07822117 -0.0133356685 0.04800501 0.08394363 -0.16912471 0.03703454 0.025976045 -0.056302555 0.031829122 -0.0031174673 0.0018037978 0.12716179 -0.08764569 -3.7128342e-05 -0.011279453 0.01487994 -0.08003902 0.043267593 -0.042111628 -0.0068369037 0.008683717 -0.034904823 -0.066661045 7.274607e-05 0.038060382 -0.043192863 0.040656473 -0.063397266 0.01028099 -0.015613796 0.053686664 0.031063974 -0.040136334 0.023526032 -0.06059053 -0.019190568 -0.037190937 0.029938241 0.017696213 -0.063615456 -0.03320206 0.04180022 -0.05623373 -0.046403877 0.019833641 0.059554324 0.00050955813 -1.7638e-33 -0.05741427 -0.058449715 0.0528613 0.06349774 0.0014454594 -0.0054961443 -0.07230763 0.0013994413 -0.015464322 -0.004171309 0.07111281 0.049056955 0.01391942 0.06160815 0.06000395 0.0237382 -0.030712621 -0.12735717 -0.005481643 -0.04458363 0.11262886 0.092428446 -0.025059491 -0.023445718 0.009058372 0.01158936 0.04257717 -0.031220032 0.016106676 -0.0030917285 -0.02700737 0.09659968 -0.03014652 0.015638834 -0.056595523 0.027863597 0.042636115 0.029654093 -0.03671165 0.010462878 -7.119512e-05 0.091593914 0.0062547945 0.04436865 0.001335904 0.06648838 -0.09348703 0.02913566 -0.028987408 0.025072174 -0.07760979 -0.053017955 0.029417874 0.011436514 0.05466687 -0.08580522 -0.06288784 0.008463595 -0.009327303 -0.058529004 0.027291961 0.021672739 -0.0464618 -0.027684186 0.038619068 0.0056232517 -0.013853087 0.04134818 -0.04593946 0.02192732 -0.05016952 -0.03831153 -0.08475206 -0.025447445 -0.045148555 -0.006677105 0.07618375 0.036834918 0.11008363 -0.0036458648 0.043279126 0.0060053216 0.10595071 0.15450373 0.023133663 -0.013551481 -0.0065950057 -0.004765543 -0.020536503 0.052264336 -0.034620866 0.06486221 0.034724787 0.0012589869 -0.0025713344 -1.8152368e-08 -0.08119995 -0.07184011 -0.06825771 -0.015741609 -0.109639786 -0.008462379 -0.05494355 0.08677049 0.022686247 -0.012186576 0.06231979 -0.030378493 -0.06677503 0.03257855 -0.034346793 0.038392037 0.01711746 0.035498615 -0.052035067 -0.04689633 -0.045360796 0.064716615 0.082748435 -0.0612334 0.012277017 -0.0029383919 -0.036716573 -0.008537091 0.091313906 -0.044163655 -0.08695948 -0.041165136 0.05247771 0.023791503 -0.0024054805 0.064295866 0.0068314867 0.03340352 0.080001935 0.044309884 0.02952048 0.06401481 -0.013184142 -0.0121548865 0.02056919 0.02060892 -0.028789198 -0.03425906 -0.072143465 0.009196239 -0.04117435 0.011478764 -0.048137367 0.012584612 -0.010499991 0.081594035 -0.048183683 -0.006452119 0.022924878 0.06780851 0.076361 -0.06733014 -0.113806315 -0.004633991

TITLE: The Companies Cutting Headcount for AI Will Lose to the Ones Who Didn't
VECTOR: -0.004737787 -0.02479662 0.040877864 -0.059711818 0.024045946 0.04472358 0.030952511 0.0046703042 0.02520319 0.050159715 0.044601377 -0.0012078396 0.027275598 -0.052906103 -0.038092185 0.00043977294 -0.083125904 0.019032028 -0.039081085 -0.03385606 0.04273393 0.009870308 -0.064896986 0.025593327 0.054106493 0.006752179 -0.024280095 -0.057037827 -0.0076065534 -0.028536884 0.008462602 -0.01780405 0.036500596 0.033191953 -0.003966476 -0.01152069 -0.054199096 -0.030870931 0.04075002 -0.053059466 -0.002272761 0.018287634 -0.08824956 -0.05000028 0.074255 0.043297287 -0.034496207 -0.060945097 0.01050489 0.069172375 -0.063898206 -0.015348452 0.008289011 -0.0013027403 -0.043522965 0.017516155 -0.013627746 -0.014929425 -0.0071309786 0.13695157 0.028452594 -0.048698895 0.010316468 0.0043817237 0.10264509 -0.0049372055 -0.026553014 -0.016930703 -0.07021548 0.071922466 0.059349265 -0.019033061 -0.030718915 -0.0225855 -0.006066799 0.051986165 -0.021157086 -0.00082186295 0.12815689 -0.017908555 -0.05640303 0.0011676578 -0.024799887 0.005489255 -0.084656574 -0.01290184 0.0083028255 -0.055036575 0.035563815 0.008263986 0.011826638 -0.056939323 0.086736366 0.0004197359 0.069456294 0.056032646 -0.044911064 0.016509002 0.006894525 0.02463945 -0.010454047 0.008880802 -0.088326566 -0.032509003 -0.04951453 0.02256452 0.025213666 -0.07299449 0.035404578 0.053957403 0.011067403 0.050819848 0.04842161 -0.016859632 -0.022714311 0.052388653 -0.022800634 0.08862859 0.0130181145 0.028258532 -0.026734069 0.024615107 0.027982347 0.018501759 0.01376498 0.043634072 -0.0985654 -2.2080706e-33 -0.01704881 -0.0270115 0.016462717 -0.068868406 -0.016511228 -0.04237182 0.016224392 0.06822805 -0.0074437764 0.019061068 -0.11120855 -0.038455006 -0.02152999 0.03464158 0.038236998 -0.08045314 0.052358884 0.037249267 -0.029393943 0.003656631 0.027894828 -0.054654013 0.02079338 0.044219125 0.006599582 0.050323393 -0.07464692 -0.06989741 0.028458241 0.030779557 -0.033035737 0.051999297 -0.04214209 -0.000766878 0.0016206836 0.100113735 -0.03268786 0.035353802 0.005420515 0.079719804 0.031123059 0.11167277 -0.05216662 -0.0050613103 -0.04434027 -0.0557616 0.041838758 -0.04239161 -0.08068325 0.013107526 -0.039472885 0.0038238014 0.009127221 -0.03157076 0.092220254 0.022319557 -0.028652621 -0.030113384 0.07974048 0.023837756 0.022689937 0.03666857 -0.054466274 0.06601991 -0.04241118 0.13537101 0.11759044 0.051162254 -0.078751214 0.02613704 0.02842342 -0.020469181 -0.1282665 0.021128172 -0.063651666 0.01996488 -0.03251773 -0.088389225 0.059047937 -0.0746131 0.068835825 0.0869464 0.0151461195 -0.07897939 0.12204905 -0.04642154 0.06514671 -0.01611149 -0.009659011 -0.036312226 -0.014664993 -0.0074683074 -0.0014105862 0.06606655 -0.058548436 2.1270309e-34 -0.131809 -0.027094264 -0.11159526 -0.04240179 0.0040870486 -0.005407509 0.03843186 -0.024986608 -0.004955366 0.0348394 0.0062050303 -0.012567871 -0.036600832 0.103268474 0.010702529 -0.14224751 0.061370015 -0.04808326 -0.025345236 0.021939943 0.040088754 0.045342654 -0.046846885 0.025280118 0.014368947 0.025445843 -0.079446435 0.025644848 0.010528466 -0.06812193 -0.008024041 -0.08076851 -0.1129669 0.10264083 0.048492327 0.029495342 -0.033441134 0.046403002 -0.055866458 0.033157047 -0.0045580706 -0.059790958 -0.059634186 -0.032061607 -0.01738598 -0.03971251 -0.0062695197 0.004712425 0.06138408 0.008624716 -0.032455534 -0.028135473 -0.037116274 0.08558368 -0.14299622 0.01969864 0.06532397 -0.021793947 -0.023525625 -0.009648149 -0.05804045 -0.066131 0.0010877019 0.07091645 0.023689337 0.018084707 0.0011350899 0.06052106 -0.011254048 -0.078995004 0.054504953 0.015171925 -0.027668174 -0.006116038 -0.035016626 0.10178963 -0.10403264 0.027602393 -0.014301486 -0.016914593 0.03035819 -0.0322254 -0.0002626936 0.00935622 0.063000605 0.009807694 0.01880549 -0.08348295 -0.096068084 0.025073308 -0.06788228 -0.058484036 0.03191446 0.06301651 -0.12988566 -2.1115108e-08 -0.0047786315 0.020370662 0.078983225 0.07687206 0.06816211 -0.03572867 -0.05185363 0.057108764 -0.020918846 0.025986176 0.045567524 -0.03917911 0.01000967 0.099308744 0.007444037 0.023128018 0.02484148 0.05932049 -0.0041499697 -0.076571114 -0.02540239 0.027645769 0.0023000261 -0.018316891 -0.013281187 -0.035921767 0.03895048 0.080439106 -0.041931044 0.06375794 -0.042719305 0.032858986 0.03464563 -0.050834034 0.059903856 -0.017652411 0.019877484 0.045050263 -0.036308434 -0.01051496 -0.052659888 0.085273676 0.021349188 0.024113897 0.10301929 -0.039127186 -0.028763242 -0.047400896 0.07846095 -0.07980197 0.06724643 0.018423732 0.0052935258 0.11094983 0.11261451 -0.0070724655 0.026869794 -0.056505494 -0.095667295 0.044951767 -0.040969722 -0.090561755 0.042131 -0.007115921

TITLE: Chess Invariants
VECTOR: 0.019671509 0.0332613 -0.06688482 -0.08116702 0.017263575 0.11222271 0.0027604925 -0.061632976 0.028766712 -0.037768755 -0.030892804 -0.02091547 -0.052686114 0.025925118 -0.09999867 0.005752483 0.0033499305 0.1694385 -0.047853947 0.016548004 -0.050695654 -0.19311613 -0.015603155 -0.020829156 -0.014016726 -0.036267247 0.018028807 0.0830844 0.021838287 -0.10709255 0.0068774805 -0.045028687 0.0011443304 -0.040741064 -0.06762151 0.030354366 -0.008760467 0.034147207 0.0010725306 0.030550884 0.010330678 0.0073421416 -0.012644168 0.07811323 0.07495179 0.1107713 -0.026090568 -0.00046024044 -0.105398625 -0.012275388 -0.038766194 -0.03172949 -0.059004094 -9.530005e-07 0.034161698 -0.029789777 -0.021595554 -0.005589303 0.07766188 -0.09111772 0.11007741 0.024258748 -0.065121554 0.042474795 -0.038729426 0.059397522 -0.0042584823 0.013578781 -0.03394824 0.015349469 0.006777627 -0.0047527226 -0.08400218 -0.064358994 -0.009098174 0.044736825 -0.021244256 0.011673252 0.020421714 -0.07452195 -0.07151098 -0.07673133 -0.040209632 0.03132399 0.054628577 -0.032249723 -0.057160567 -0.004844931 0.044875294 0.04566424 0.048643373 0.07665931 0.10395121 -0.008010363 0.07739468 0.07654502 0.016733412 0.057196878 0.06751382 0.10581345 -0.05861812 0.014814696 -0.009447431 0.08366029 0.04763695 0.026465591 -0.017294131 0.008143392 -0.007204918 -0.07046296 -0.058133934 -0.05110306 0.06486831 0.0051775104 0.006616403 -0.009623496 -0.014006612 0.01806326 0.038312342 0.00057369756 0.14333098 0.012554613 0.0049691554 0.01666945 0.01968777 0.056109227 -0.04339971 -3.266687e-33 0.046043076 0.037668977 0.019548291 -0.04573258 0.022270806 -0.10045887 -0.00016789022 -0.08391696 -0.011096641 0.083504274 -0.047595385 0.011894489 -0.0033647725 -0.055677388 0.06292693 0.0704275 0.05308858 -0.015052446 -0.048910465 0.011103006 0.02827449 0.08428449 0.027563244 -0.0072193975 0.023307396 0.051292744 0.0075032944 -0.043160632 -0.014149564 -8.760706e-05 0.026809886 -0.07856737 -0.087349735 0.0738279 -0.03454651 0.01774663 0.02973415 -0.0070422264 0.043829538 -0.054558087 0.07753343 -0.08684698 -0.07792776 -0.037156284 0.018436393 -0.033336855 0.046827566 0.038698915 -0.04914544 -0.024676334 0.043911237 0.018401645 -0.036798846 -0.038535867 -0.0060811252 0.009850818 -0.012455335 0.05749927 -0.05439074 0.073691785 0.076430865 0.019125957 0.038287207 -0.016482905 -0.011690321 -0.036698565 -0.055184126 -0.013392189 0.05803831 -0.015836181 -0.049350634 0.023389915 0.026256222 -0.018787904 0.009080017 0.010671652 -0.059055876 -0.09790947 -0.039049 -0.055046424 -0.11467264 0.02636698 -0.018664721 -0.010853343 -0.049129084 0.03605014 -0.0041317698 -0.05726604 0.0058499803 -0.0023812584 -0.058775686 -0.037514 -0.034597874 0.020580372 -0.03372998 1.8524955e-33 -0.084115155 -0.05950163 -0.022502482 0.13484354 0.030681727 0.014734108 -0.029772723 0.04270842 -0.0041203024 0.0066395686 -0.0006593768 0.017762262 -0.029818121 0.0031494903 0.04167315 -0.06436003 0.02941801 0.034586113 -0.03747952 -0.06653043 0.057736386 0.025039379 -0.009129442 -0.022547953 0.018339979 0.09590469 -0.01714019 -0.0107671665 0.011279505 0.12711234 -0.031822108 -0.028774591 0.028361635 0.032934017 -0.01698475 0.04357764 -0.021830631 0.019199727 0.061682448 0.118295915 -0.04651575 -0.06593853 -0.021202493 0.106152505 0.07709369 0.054610755 0.0288632 0.13215709 0.046115123 -0.046860263 0.038398594 0.019939777 -0.04175242 0.0037514507 -0.020401062 0.093483545 -0.029925479 -0.033379458 0.0719267 0.016413227 -0.044420313 0.0036771689 -0.023283381 0.014634639 0.033762306 0.04890824 -0.048646353 -0.027551886 0.03473739 -0.022229776 0.03322536 -0.00041224225 -0.1134752 -0.029975362 -0.003496419 0.023451906 -0.005436797 0.065911226 0.048918225 -0.042716015 -0.10378364 -0.023766788 0.026795302 0.024228778 0.009849245 0.0072619068 -0.02170249 -0.01255754 0.017910378 -0.02580557 0.062645264 0.051235847 0.047552675 0.04636582 -0.0072500943 -1.1183371e-08 -0.003463025 0.018677045 0.015139755 0.011376736 -0.025948795 -0.003647409 0.0020094477 -0.034154672 -0.031066218 0.04298935 0.026667245 -0.045905355 0.009782011 0.011603004 0.02816141 0.038196355 -0.02425402 0.059249528 -0.085669205 0.02202837 -0.00043093888 0.01348577 -0.059189063 0.02213055 -0.065458074 -0.111556314 -0.083399065 -0.030981058 0.06486306 0.08406728 0.1078165 0.06971532 0.16018797 -0.08347267 0.011930327 0.041715227 -0.05823666 -0.04467768 0.012070845 -0.060661063 -0.037459116 -0.05755455 -0.060470205 -0.01549256 0.03578587 -0.028695926 0.048018288 -0.068286136 -0.08037063 -0.0041287695 -0.012037302 0.0076302304 -0.022990275 0.0051708035 -0.0045383447 0.06909185 0.03405685 -0.034916397 0.052768614 -0.08972565 -0.0140300505 0.012341579 0.036735415 -0.071018815

TITLE: Project Hail Mary – Stellar Navigation Chart
VECTOR: 0.019499246 -0.0027497294 0.040027823 -0.030741015 -0.024066119 0.0018786234 -0.04943884 -0.021657119 -0.03482929 -0.009955263 -0.06983384 -0.039824884 0.031663593 -0.055080734 -0.05492371 0.05260122 -0.03012049 0.020761115 0.11546812 -0.00031280908 -0.041900493 0.012530999 -0.03169162 0.070445575 0.039996605 0.046887983 0.01078878 0.023335954 0.0038533525 -0.09716711 -0.023284992 0.07970687 -0.002645287 0.055354938 -0.084958434 0.015778376 0.03941149 -0.019441431 -0.026431754 0.0076705925 -0.0020042 -0.044483595 0.048146125 -0.0075415294 -0.004485904 0.031588994 -0.14899488 0.04453871 0.009881307 0.08347692 -0.088212 -0.09042853 -0.03850367 -0.07374317 0.05320707 0.11904707 -0.07551479 -0.12825781 0.0878579 -0.0108484775 0.027117798 0.063893214 -0.016988745 -0.002797376 0.043448355 0.012872746 -0.09303017 0.089242905 -0.028755479 0.028979342 0.042760972 -0.019818366 0.038174957 -0.022685897 0.0017047223 0.00012232347 0.011447411 -0.08153386 -0.041298598 -0.08634852 -0.039536413 0.024416061 -0.016389094 0.07023221 0.007344099 -0.030611005 0.0071741706 -0.012865619 0.0046307705 -0.02226735 0.02193269 -0.08054465 -0.024881618 -0.045704383 -0.020819355 0.01018569 -0.0695099 -0.16217287 0.10147913 0.06456627 -0.016940689 0.037114214 0.05303567 0.031678095 -0.030661905 -0.0086280005 0.09507603 0.016616832 0.01323433 0.058058888 0.025922038 -0.030516544 -0.07912593 -0.09964052 -0.0937705 0.03506592 -0.055163335 -0.038925406 0.051311944 -0.07386241 -0.03253776 0.0024624032 0.065292664 0.029642886 -0.07832273 0.011165002 -0.01857175 -1.0827174e-33 -0.012863718 0.038160127 0.075879134 0.06217571 0.076687865 -0.030590532 -0.06656606 0.0067868787 -0.02050844 0.0014245063 -0.01995795 0.086437754 0.007656413 -0.000306921 0.06332703 -0.11428969 0.09451276 -0.018708048 -0.14051878 -0.06475585 -0.05909292 -0.03886167 0.010762235 -0.053498574 0.09098522 0.068876304 0.045882113 0.052256994 0.0039875875 0.059568048 0.055208415 -0.017675268 -0.02988925 0.033909652 -1.488563e-05 0.07301786 -0.07558661 -0.05360943 -0.008813379 -0.014991858 0.020709407 0.00057545514 -0.018131087 0.06772048 -0.11582834 0.061462384 0.05833448 -0.05075974 0.05585654 0.04450009 -0.026239688 0.028717734 -0.15667653 -0.071375825 0.0016744013 0.0042530596 -0.014589188 0.024287347 0.010947094 0.01376656 0.015158039 -0.024923583 0.052398194 -0.03868314 0.07098329 0.10090251 -0.028462676 0.02300398 0.00939824 0.0012828949 -0.00889305 -0.04734941 0.13756327 0.0021014363 0.05487133 0.0971266 -0.0039111697 -0.030031169 0.026259072 -0.044220492 -0.08918279 -0.038593378 0.023930755 -0.015668958 0.052255694 -0.09267172 0.026881024 0.0016120163 -0.05623986 -0.0395762 -0.026424883 0.026895462 0.07023516 -0.0433994 -0.10425985 -7.018564e-34 0.032207206 0.060017984 0.06175761 -0.029946731 0.045936722 -0.043178033 0.003736283 0.06627145 -0.044013 0.071760684 -0.0926705 0.018281976 -0.0006603123 -0.06458565 0.0064674104 -0.012165636 0.10771872 0.033525195 -0.0972744 0.031382605 -0.012830168 0.07609642 -0.044629216 -0.011202923 0.04121078 0.04140602 0.10453458 -0.03810526 -0.02302901 -0.030799573 -0.04700012 -0.051951442 -0.027425362 -0.054182433 -0.04339235 0.055146232 0.06504027 0.03864002 -0.034367736 -0.038894054 -0.03675624 0.014710908 0.030398486 -0.013362301 0.045535333 0.030889582 0.03571264 0.1301511 -0.032836135 0.040596385 -0.027834253 -0.0036706573 0.04635893 0.0029432338 0.0028095036 0.03078731 0.006666829 0.0038752584 0.061036315 -0.01648377 -0.009937512 -0.009530938 -0.043913778 0.038169485 0.021987872 -0.07707077 -0.0030554053 -0.009380799 -0.05081787 0.040632334 -0.07718395 0.013132939 -0.02220914 0.017413253 -0.022765385 -0.034399517 0.023808831 0.0012687737 0.040891297 -0.077506416 0.0033787373 -0.04993095 -0.01614124 0.06208577 0.06734035 0.019572876 0.02677221 -0.07252098 -0.0006053292 0.06596458 -0.03390978 0.032924417 -0.045603912 0.014962823 -0.0057756784 -1.4517393e-08 0.021938773 0.04905296 -0.025474845 -0.004092039 0.07274932 -0.014658759 0.0057983776 0.017608004 0.009243158 0.05269134 -0.0060363743 0.0362311 -0.05606428 0.008021392 -0.025818469 -0.04396159 0.009468094 0.017374994 -0.033997547 0.04960894 0.030591713 0.115485266 0.027164236 -0.033850316 -0.025080597 0.00770793 -0.0038770763 0.024162475 -0.0194095 -0.08060599 0.023108756 0.12246382 -0.058556944 0.01055602 0.025485925 0.011726164 -0.053994082 0.08166399 0.008380418 0.03751928 0.0011057789 0.08491542 0.01104007 0.010775387 -0.023645394 0.091165535 0.003507291 -0.024652699 -0.02898532 -0.040696863 -0.08509122 -0.017800264 -0.00764025 -0.018303122 0.050050087 0.020624466 0.025604319 -0.052567545 0.018105628 0.02203309 0.07820208 -0.07111085 -0.04936584 -0.029859172

TITLE: Steve Wozniak cheered after telling students they have AI – actual intelligence
VECTOR: 0.021361666 0.12928627 -0.007373345 -0.047179174 0.03141693 -0.076098725 0.09312964 -0.018960483 0.025561376 0.03540433 0.0055665667 -0.019229902 0.048734393 -0.0057159974 -0.040638402 0.055881165 -0.026894936 -0.0017569697 -0.018066926 -0.05988173 -0.008546741 0.039859056 0.09157846 -0.016938463 -0.020368118 0.022907892 0.08124079 -0.0026878896 -0.033488493 0.05216248 0.04335697 -0.014652514 0.0808941 0.0025305524 -0.087320566 0.02736275 0.03535098 -0.0053445385 -0.026807752 0.007957047 -0.02490632 -0.059923273 0.042473163 0.05914298 0.056595217 0.0427187 -0.041615125 -0.10657109 0.01822737 0.057240617 -0.11324233 -0.06666381 0.045342885 -0.07623645 0.033398546 0.057183743 0.02328815 0.0638923 0.0121563105 0.034954563 0.07112362 -0.061779477 0.053893276 -0.022748413 0.03200376 0.01998443 -0.118694246 -0.030033454 -0.009376707 0.03966856 0.050824456 0.0062768916 0.04262675 0.02546206 0.018186506 -0.011120451 0.034849476 -0.016188204 0.08944966 0.0035270297 -0.005776285 -0.12875162 -0.058914162 0.0010955643 0.024908923 -0.06650208 -0.03725295 -0.08532915 -0.040274557 0.053966135 -0.032484647 -0.09312275 0.04004626 -0.010861757 0.091688275 0.0016189949 -0.06514134 -0.029203622 -0.067773886 0.070246466 -0.011790386 0.024308296 0.013335359 -0.028720906 -0.052302122 -0.039258994 0.047098372 0.005959514 0.02822874 -0.022686204 -0.043292187 -0.0326097 0.10502478 0.03140983 0.05162289 0.033455838 0.010321319 0.10845421 -0.025914883 -0.031945977 0.09397438 0.0114596225 0.020197067 0.038714264 0.08768957 -0.03407882 -0.11377891 -9.364465e-35 0.01730449 0.028363103 -0.0061189593 0.015417662 0.019091664 -0.030310733 0.077921115 -0.06934609 -0.015985524 -0.048082553 -0.009475613 0.041817367 0.008798917 -0.000873881 -0.0612515 0.028448578 -0.09635835 -0.004261238 -0.09457719 0.04965436 0.053157195 0.017888363 0.001399809 -0.034942653 -0.030871782 -0.014748907 0.03424985 -0.045480598 0.06516645 0.0030060802 -0.026122868 -0.008372055 -0.036849875 -0.012422749 0.058135197 -0.018633058 0.017262237 0.009098446 0.0038419878 -0.011408675 0.017433003 0.012958919 -0.00021209814 0.072521 0.0034786419 0.08701977 -0.0022143815 -0.025021005 0.056099605 -0.05306686 -0.0723291 0.030842349 -0.012188583 -0.10935357 0.014843481 -0.005758414 0.01226441 0.06602452 -0.011184772 -0.067771345 -0.03709483 0.07684316 -0.012698497 0.0052536484 -0.08410588 -0.0010756266 -0.03556635 0.00886577 -0.0123558715 0.013420498 0.070500135 0.041324914 -0.1044004 -0.022594208 -0.081351675 -0.023394166 -0.023630587 -0.10215906 -0.008742295 -0.09092787 0.09074619 -0.123365045 -0.05819352 -0.063452475 -0.010809979 -0.00668516 -0.045505952 -0.09041896 0.04813858 0.055137917 -0.021874694 -0.061553683 -0.037023384 -0.024203343 -0.11371009 -8.539045e-34 -0.068970956 0.059476607 -0.16405834 0.043126192 0.028909225 0.042262252 -0.025970237 0.013620864 -0.029547103 -0.026987478 0.11230885 -0.013596245 -0.08388566 0.006069502 -0.011841876 -0.07492265 -0.0023817206 0.04528414 -0.01265225 0.014827642 0.047158115 0.014153201 0.008339907 -0.04131568 -0.0091331825 0.041552205 0.012627985 0.035559665 -0.0107186 0.021612618 -0.0056276573 -0.04609183 -0.03627341 0.043545175 0.023233343 0.06656612 -0.006513812 -0.06843008 -0.06798856 0.034356017 0.043043237 -0.09584964 -0.07501378 -0.023711048 -0.009860928 0.04309834 -0.03766885 0.03126813 -0.06635375 -0.019606521 -0.03491586 0.0012039006 -0.066474415 -0.05162848 -0.02556432 0.05445724 0.028667282 0.028380087 -0.008391654 0.06263929 -0.027023155 -0.048210498 0.06703197 -0.029670827 -0.040352266 0.073134795 0.017946232 0.111590646 0.02086954 0.004047513 0.04436734 0.085527204 -0.03200236 -0.012591028 -0.038110994 0.13240293 -0.047509458 0.06364085 -0.035446394 0.011855406 -0.010955524 -0.060046386 0.06254069 0.034727987 0.042790562 0.06553952 0.0050980807 0.029874349 -0.0027187488 0.08838225 0.026391946 0.064339325 0.016347244 -0.0048642345 -0.056922786 -1.9695731e-08 -0.08172272 -0.030675689 -0.03406422 0.0053761234 0.068722054 0.09383112 -0.053909574 -0.031320285 -0.03830355 0.019849606 -0.008089086 -0.007210122 0.007176705 0.005267796 0.077393 0.056869075 -0.004661385 0.0012544466 0.012707743 0.011252541 0.09020466 0.017274773 -0.01923326 0.055517245 -0.053814873 -0.020284312 -0.07190573 0.033592794 -0.08705731 0.07472425 -0.04525743 0.019845746 -0.07761017 -0.048849583 0.049558558 0.026404884 0.008000563 -0.03617401 0.031102704 0.023694418 -0.053813025 0.03927491 0.0012340201 0.03014788 0.07023695 0.0027784724 -0.04386723 -0.06529389 0.0729526 0.050107487 0.0064434553 0.011926698 -0.05535617 0.041200433 0.095741965 0.0037707714 -0.06837724 -0.025327409 -0.14891675 0.051291194 0.07717917 0.08496963 0.0018746171 -0.03422783

TITLE: Slumber a TUI HTTP Client
VECTOR: -0.11064787 0.034385633 -0.066628516 -0.01568698 -0.08485177 -0.08258312 0.009219388 -0.047503036 -0.00905572 -0.011488023 0.009862276 0.003204311 0.0012639851 -0.058482688 0.10161933 -0.0011625243 0.030018281 -0.012286346 0.04755211 -0.067088164 -0.049071796 0.014136206 -0.07249787 -0.016264843 -0.04871143 -0.06039264 0.0071978876 0.018912429 -0.0064499136 -0.008771097 0.08607278 0.065131634 -0.06158598 -0.025219876 -0.027015623 0.09338843 -0.0065130545 -0.041040745 -0.023240313 0.04181792 0.13789551 -0.01707319 -0.05633262 -0.012310926 0.02279001 -0.11331064 -0.08456773 0.050683945 -0.03458598 -0.017911388 0.004608298 -0.006248468 0.010606204 0.076747246 -0.06064562 -0.062858015 -0.059183076 -0.036056187 -0.026088197 0.09905231 0.012404775 -0.031606182 0.005353021 -0.008758364 0.019403214 0.03720349 0.028440794 -0.06624714 -0.060629882 0.06717249 -0.0029379574 -0.003107421 -0.081054576 0.036986876 -0.06584461 -0.057432972 -0.002388886 -0.0011969871 -0.0011130932 0.044501558 0.03907611 0.0108390795 0.010472687 0.012569301 0.016688747 0.012361581 0.06752419 0.0021591124 0.017755711 0.013154434 -0.028772786 0.0757758 -0.012564028 -0.028466633 -0.011062791 -0.027146889 -0.009743502 -0.055468265 -0.13082886 0.06789875 -0.0007119062 -0.006809369 0.016958186 0.010734453 -0.016056944 -0.024251044 0.01935603 0.034348868 -0.029765034 0.065573156 -0.067042746 -0.01222055 0.04153545 -0.060850114 0.0045479755 0.08161583 -0.038896162 0.03858024 -0.0064442535 -0.04126662 0.021432677 -0.012202803 -0.06773254 0.018405382 0.05851659 -0.06282138 0.07176185 2.9777194e-34 0.05788801 0.04689613 -0.06483594 0.061191168 0.10244494 0.014983365 0.01377048 0.017518664 -0.10133691 -0.038113575 -0.02754766 0.028673494 0.036429178 0.0071563786 0.06689856 -0.028201219 0.032351714 0.041970234 0.07881996 -0.066485584 -0.061502907 -0.058395028 0.074940115 -0.02750328 -0.044437457 -0.02326828 -0.032814912 -0.003135988 -0.061552662 -0.0076999776 0.15268986 -0.0029734527 -0.0050759125 -0.03622169 0.032020386 -0.050333712 -0.010081591 0.011127013 -0.05465168 0.043854464 -0.022188624 0.08510262 0.010180154 0.017737262 -0.11368223 -0.04317787 -0.054018315 -0.07784696 0.041599497 -0.0139272725 -0.0706891 0.048582345 2.1729684e-05 -0.008189465 0.027475432 -0.017672954 0.07728817 0.029857934 0.00586132 -0.0058695343 0.0147908265 -0.08484787 -0.049146984 -0.09983024 -0.055601723 -0.027046992 -0.018891698 -0.042782187 -0.023955816 -0.039249808 0.026848739 0.093044 0.049071796 0.015085354 0.008224656 -0.020230968 0.051826213 -0.029486425 0.001550204 0.01730469 0.09185039 -0.029685399 0.041587826 0.07525501 0.03346914 -0.083718814 0.02427057 0.096162945 0.012916678 0.049163774 -0.0015107021 -0.0036587361 0.03644997 -0.069309935 0.076422855 -2.015588e-34 0.007900245 -0.10214452 -0.050477948 0.034305003 0.009868228 0.019151108 0.066314034 0.02125703 -0.07989766 0.09323498 0.068670444 0.04878779 -0.013440356 -0.0041832007 0.076298684 0.020917313 -0.01051624 -0.023732316 -0.013380028 -0.027062897 -0.04423504 0.008677372 0.037907094 -0.054812685 0.03708921 0.041655198 0.07212556 0.058651157 -0.050584804 -0.06597086 -0.0570056 -0.026841698 0.0047840206 0.03428956 -0.02456747 0.054772504 0.10598733 0.14329842 -0.040183615 0.030365175 0.12702237 -0.07283895 -0.01757515 0.058798123 0.01718284 -0.10494009 -0.11288633 0.063906595 -0.118979 0.03498303 0.070542485 0.019074328 0.00040288712 -0.0050150733 0.007845505 0.0069528054 0.01042831 -0.05970738 -0.03903322 -0.005015544 0.048222184 -0.07269827 -0.023433808 -0.0046257386 -0.018001692 0.023105636 -0.0474138 0.09549507 0.007114173 -0.03182573 -0.01647454 -0.065333955 0.006528831 -0.0031807313 0.09579961 -0.0833418 -0.008983077 0.08035626 0.058770172 -0.0022044685 -0.0689994 -0.039007343 -0.03507704 0.038567066 0.078214765 -0.023588957 0.07167307 0.0050376584 0.01739719 -0.009495862 -0.04489295 0.05687424 -0.041393425 0.0973359 0.10892102 -1.5346592e-08 -0.053850666 -0.054871794 -0.033028144 0.056971256 -0.03730535 0.03186218 0.037102487 -0.08546358 0.046033226 0.016322214 -0.020468997 0.024850132 0.04869939 -0.0047236257 0.043810003 0.09074914 0.0393731 0.0028409315 0.011399863 -0.025100071 0.010555127 0.06478136 0.035233352 0.014540236 -0.015905129 0.004228408 0.038409572 0.09534902 -0.059754565 -0.060901076 -0.048621982 -0.01547368 -0.024400493 -0.0023554272 -0.02397152 0.039634917 -0.11931423 -0.033243872 0.022712432 0.02374188 0.01646202 0.013707714 -0.065644726 -0.02005929 0.08348849 0.080281466 0.027609367 0.0024158952 0.038452037 -0.004593749 -0.07206036 -0.031456295 0.06843767 0.045882255 -0.036047053 -0.0072365706 0.025783384 -0.10087083 0.043183405 0.10059507 -0.0033467496 0.036053583 -0.044427335 -0.0043682186

TITLE: Circle Medical (YC S15) Is Hiring a Mobile Engineer
VECTOR: -0.061088186 -0.0042789993 0.021277959 -0.043909926 0.010568185 -0.10869154 -0.0114289215 0.06622867 -0.011468919 -0.09491405 -0.0058752447 0.007419235 -0.01029623 0.006895446 0.031142624 -0.0024834594 0.04369825 -0.06822162 0.046586707 -0.06392233 -0.009723778 0.036600668 0.040358912 -0.017203674 -0.03135879 -0.05458094 0.031097654 -0.034646522 0.041374456 -0.0047570257 -0.0038236144 0.13135903 0.0020520054 -0.0073129535 0.04565694 0.0012134173 -0.027013559 -0.007385637 -0.0012396537 -0.04844608 -0.02525944 -0.026662687 0.04722195 0.0124250045 0.013601299 -0.013094167 -0.06759089 -0.019218512 0.004526807 0.01486329 -0.0099790385 -0.057317406 -0.021031104 -0.023310851 -0.03487857 0.018638676 -0.018145572 0.026470901 0.018824495 0.04416938 0.05408209 0.027754046 0.004605697 0.084842354 -0.0033463093 -0.051665876 -0.023855986 -0.058420237 0.061305452 -0.10684906 0.02629994 -0.08898505 0.00478016 0.038380537 0.046018843 0.07588816 0.014389829 0.055105954 0.027567437 0.03919472 0.017474968 -0.03478501 -0.026227236 0.04740688 0.011578476 -0.008579901 -0.014703591 0.0592846 -0.05114482 0.041987516 0.041383658 -0.0024581 -0.0849642 -0.015159005 -0.048165932 0.0064693633 -0.030627938 -0.043365225 -0.13125795 0.0273386 0.009787958 -0.028443929 0.10733402 0.04618857 -0.11683507 -0.02732542 0.031056663 -0.037350748 0.020131921 0.02632774 0.0042550634 0.057982128 -0.05633649 0.0015940118 -0.04123277 0.087237805 -0.079067536 0.03891407 0.08040551 -0.0014188277 -0.015568616 0.016661255 -0.13132404 -0.09040843 -0.03812559 -0.06633684 -0.060500067 -2.727259e-33 0.04788959 0.082776695 0.01569685 -0.02563537 -0.015523016 -0.047004797 0.062971935 0.03755199 0.13937233 -0.001616776 -0.06445927 0.015973555 0.033840753 -0.036172844 -0.04628172 -0.052696623 0.011195052 -0.02642596 -0.04684523 0.032553483 -0.021565456 -0.10352315 -0.08603927 0.025926782 0.0061338753 0.07456679 0.00066882395 -0.038371515 0.11605484 0.06126215 -0.08485765 0.075999126 0.005746449 0.015722057 0.081960924 0.07995884 -0.013894908 -0.08583071 0.04969579 0.012807983 -0.01648269 0.037768677 0.025908614 0.047393885 0.05277086 0.0042173364 -0.01897223 0.0046653952 0.028977 -0.014653796 -0.10944389 0.00089818187 -0.0049883984 -0.10938861 0.042145412 0.0094765425 0.07594341 0.015760178 -0.022698939 0.082270734 0.037627127 0.080335684 -0.033529647 0.044882953 -0.00050227594 -0.05334246 -0.032632034 -0.1655655 0.03526363 -0.006490899 -0.036056563 0.09326252 0.08199081 0.01920776 0.0011935462 -0.0035579125 -0.013422433 0.076722644 0.007678399 0.005641894 0.031882938 0.0508299 0.0067873504 -0.04362844 0.16484217 -0.04965674 -0.009030457 0.0042532464 -0.002838628 0.082571104 -0.014673569 0.0098039005 0.033479553 0.12120898 -0.032166168 4.240656e-34 -0.10646351 0.011180547 0.03267455 -0.033061117 0.050450962 -0.040694054 0.085027985 -0.008944019 0.02763931 0.038251303 -0.003247702 0.011976238 0.018207919 0.0032018994 -0.019206496 0.04869643 -0.056047812 -0.091760576 -0.06742857 0.085046865 0.049403682 0.08129315 -0.0036799507 0.08692081 -0.015386997 0.04195468 0.03383204 -0.010239627 -0.05826394 0.0107896235 -0.13440269 -0.037449867 -0.030411016 0.00025593484 -0.011537859 -0.029564293 0.017289672 -0.008955379 -0.025189878 -0.036937267 0.07478969 -0.05560574 -0.015871705 -0.015939873 0.006250588 -0.13484216 0.10019011 0.0020631836 -0.007025564 -0.064529166 0.021288462 0.06549384 0.018826196 0.011966223 0.0010735611 0.013397369 0.001603927 -0.11532497 -0.05501824 -0.10544015 0.0641865 -0.010536111 0.0647734 0.017728487 0.010962948 -0.014763555 0.10377141 -0.029612646 -0.04774166 0.063574485 -0.05155099 0.06195939 -0.0064484305 -0.021764942 0.011562397 -0.060251314 5.544206e-05 -0.067576736 -0.055702623 -0.056376513 0.011304444 0.05408903 -0.011590369 0.029838776 0.060331125 0.01718873 -0.011051228 -0.020885056 -0.0011980034 0.004922599 -0.027378125 -0.0042923177 -0.04875324 0.03219518 -0.010748824 -1.9251747e-08 -0.047742516 0.006110646 -0.008870009 -0.00814022 0.008201863 -0.05235857 -0.07476861 -0.021963555 0.058325082 -0.017457314 -0.04318641 0.08761702 0.003313828 0.018382212 0.047911417 0.025681201 0.037717767 0.08803313 -0.039062694 -0.044763237 0.05181946 -0.008109978 0.060002316 0.059288442 -0.004234381 0.016291253 -0.08160074 0.024853911 -0.0048423964 -0.027756192 -0.040669832 0.028851708 -0.006157108 -0.05391732 0.019313177 -0.10152657 0.053367686 -0.062791385 0.020212471 0.039966516 -0.03684746 0.065916896 0.00418913 0.02323635 0.024708474 -0.0642501 -0.042824663 -0.047946148 -0.013636819 0.025541663 -0.03039325 -0.09401391 0.0042671645 -0.07085264 0.043919835 -0.00018539937 0.051547818 0.0071871756 -0.16781923 0.026655637 -0.017923098 -0.0026824246 0.09826506 -0.00327812

TITLE: Show HN: ShadowCat – file transfer through QR Codes in a Browser
VECTOR: -0.1128206 0.023275092 -0.032264836 -0.00637068 -0.023946386 -0.013869593 -0.040223394 -0.040557686 0.0114386575 -0.042537358 0.08409222 0.01293075 0.0027839134 0.015174556 -0.06423964 0.02106835 -0.02190113 -0.002007454 0.029872322 -0.0061245966 -0.01887995 -0.07430228 -0.009598729 -0.05476338 0.041272275 0.03616336 -0.064631134 0.08792876 0.0072112926 -0.0777263 0.10474773 -0.00035580492 -0.009270459 0.025072945 0.036204793 -0.0040356326 0.014684908 -0.07229867 -0.06313535 0.04976231 0.00735026 0.02249545 -0.051713027 0.06334487 -0.015090118 -0.072566755 0.022553235 0.041996647 -0.013826956 -0.084709354 -0.045411106 -0.024423532 0.033227142 0.04739917 -0.029845532 -0.023868527 -0.040130172 -0.00017667832 0.010292927 0.04953553 -0.05355772 0.06685127 0.035553154 -0.0415754 0.06583071 0.048612732 -0.028014615 0.04974357 -0.06320453 -0.008046853 -0.108772 -0.041138947 -0.1312487 -0.048837297 0.0061159735 -0.08144738 -0.048054013 0.09736085 -0.080585375 -0.029945891 0.08796105 -0.10521349 0.052739743 0.12095359 0.063174516 0.05933938 -0.020301593 0.062368598 -0.031075297 -0.024102043 -0.05935495 -0.042891037 -0.020039005 -0.014502566 -0.055130657 -0.022290478 0.020930909 0.0650796 0.038608663 -0.0026775612 0.05412998 -0.06527152 -0.013029982 -0.03524985 -0.006734985 0.023349827 0.13323991 0.11073428 0.15262812 0.0087504815 -0.027448513 0.056501444 -0.072594665 -0.085471034 -0.0169555 0.099522084 -0.05497975 0.091689214 0.04154068 -0.045625914 0.06148264 -0.013233417 -0.03756673 -0.030568147 0.12261741 -0.06399127 -0.043918677 -4.52685e-34 0.04577941 0.048379995 -0.004485207 -0.04816489 -0.006360813 -0.05202888 0.073619895 -0.007726773 -0.07319168 -0.036701996 0.022607887 -0.032190107 -0.015372721 -0.032599684 -0.03153662 0.038152456 -0.097485445 -0.056567512 0.030641003 0.018473718 -0.0026680275 -0.056363776 0.00055622205 -0.014504868 -0.013406411 0.068712704 -0.020027122 0.0077745947 0.047275275 -0.004947795 0.05449465 -0.005142101 0.056567557 -0.043088194 -0.058114383 0.022676824 -0.03718579 -0.014191659 -0.04004493 -0.0009292415 0.010980573 -0.08741712 -0.026014293 -0.053436294 -0.014994859 -0.070658006 0.023368074 -0.07111014 -0.050437283 0.0196241 -0.029102476 -0.040867236 -0.06134944 -0.058471974 0.092304766 -0.010218814 0.021283654 0.048265662 -0.021912415 0.07386656 0.093639 0.012769095 0.0007653471 -0.054351766 -0.015768426 -0.06265838 0.03580196 0.012121563 -0.06044617 0.06648102 -0.051958375 0.047468003 0.031506214 0.01087359 0.07418562 -9.640094e-05 -0.09403135 0.028090274 0.048100043 -0.011773069 -0.0011590488 -0.079259075 0.06552534 -0.032211736 -0.01311881 -0.034787107 0.04986216 -0.0672954 -0.09631739 0.09431757 0.016707601 -0.035865027 0.0076359347 -0.049092587 0.022496805 -2.7181314e-34 -0.005955179 0.044937667 -0.00990996 0.030757036 -0.072083406 0.051500514 0.073276706 0.017216925 -0.0013165255 0.04437485 0.00041320565 0.06430768 -0.051504955 -0.02834636 0.012976588 -0.017708119 -0.008465947 -0.013917282 -0.009825722 -0.017635625 -0.055382803 0.0190186 0.041214276 0.07693665 0.032176588 -0.010043169 0.179952 0.04996028 0.057150822 -0.05808615 0.0052878777 -0.094751336 -0.030222133 -0.08662716 0.033656284 0.021553013 0.037454367 0.0942914 0.034343284 0.030343298 -0.01890006 -0.05861809 -0.044320717 -0.007995434 -0.017633928 0.013563712 -0.07360783 0.027764184 0.027835106 0.04049002 0.12844251 0.05421468 -0.027641842 0.018882673 -0.009478585 0.070726424 0.0013316527 0.03927845 0.050679166 0.019088924 0.01802665 -0.07085073 -0.06880908 -0.0052639046 0.0333698 -0.023002883 -0.0016561028 0.02375498 0.026487954 -0.022014339 0.009736592 -0.05784746 0.042592064 0.07749302 0.084925756 0.006583927 0.024592733 0.018497184 0.054200195 -0.0038469485 0.018266596 0.0001478876 -0.01936311 -0.036128696 0.09316022 0.0012461122 -0.02163994 0.024071064 0.0013605477 -0.08790468 -0.0018206047 0.09574263 0.058951862 -0.017487742 0.016740562 -1.5859074e-08 -0.039908458 -0.08954879 -0.037142646 0.006063213 -0.0013580256 0.075006135 0.008881492 -0.035842046 -0.042747702 0.044123653 0.01528783 0.00029350797 -0.022694224 -0.00065581204 0.031867236 -0.00034332008 0.049067296 0.0062952586 0.0236643 -0.014896812 -0.010998776 0.054984327 -0.022182079 0.027058791 -0.037237603 -0.0019352649 0.029503098 0.020520499 0.036221866 -0.11149752 0.069473505 0.017805781 0.053362828 -0.034114562 -0.1063851 0.0028692766 -0.033458754 -0.040478874 0.01699965 -0.011299673 0.053246897 -0.063341655 -0.08086328 -0.05126888 -0.01730793 0.025255563 0.018312762 -0.08155046 -0.077034615 -0.010099195 0.075926155 -0.0899824 0.062362287 0.03590234 0.022489982 -0.042565368 0.09474812 -0.07316055 0.040644933 0.03816488 0.101227574 0.029002802 0.017900925 0.09012779

TITLE: The memory shortage is causing a repricing of consumer electronics
VECTOR: 0.062095735 0.028153734 -0.02704553 0.016409049 0.0072759795 0.032088224 0.007121113 0.03474511 0.032602772 0.018745568 0.079415776 0.057699572 0.061204087 0.00035685147 0.08860179 -0.0040117498 -0.045884643 -0.04315753 0.010033263 -0.043479085 0.0048576724 -0.05815348 -0.059333503 0.036888614 -0.10271404 0.037859663 0.018368807 -0.096878916 -0.031746294 -0.07341423 0.037364375 0.12778868 0.02306976 0.047006603 0.054292284 -0.00650343 -0.11227834 -0.013942298 -0.0012372097 -0.04334484 -0.006845944 -0.025481382 -0.046224955 0.04017392 0.07255486 0.031068377 0.017888278 -0.03361208 0.038013477 -0.044843756 -0.0030806896 0.04927143 -0.03862811 -0.012704331 -0.04790154 -0.04627114 0.052093092 0.007875449 -0.05900155 0.06300672 0.023718666 -0.09412966 -0.011822495 -0.023261495 -0.043831028 -0.0022821366 0.101728186 0.062016595 -0.010889804 0.075952 -0.029803963 -0.020676328 -0.00085855956 0.020898493 0.008948663 0.009279328 0.040521 -0.052084994 0.039745666 -0.07176645 -0.010656039 -0.05939609 -0.06339129 0.028357917 0.10091483 0.0019448511 0.0052475124 -0.096671976 -0.07976808 -0.0961147 -0.041223284 0.013862307 0.027471568 -0.00959845 -0.0331436 -0.0010713047 0.044527687 -0.05778675 -0.028905123 0.028571896 0.07827878 0.0832558 0.021008516 -0.0019415561 -0.0529266 -0.05242323 -0.027356854 0.103313334 -0.06065988 -0.024387985 0.004462493 0.04419648 -0.0063206903 0.031541146 0.05745902 -0.015237747 -0.026809707 -0.046654426 0.033383824 0.08054061 -0.021463877 -0.024473978 -0.04551606 -0.041694168 -0.06060641 -0.028416255 -0.032141533 -1.1269892e-33 -0.08848126 0.014437339 -0.06293852 -0.012498241 -0.0320565 0.0188771 -0.0022194027 0.028012225 0.02062113 -0.05113968 0.024700852 -0.023245187 -0.021044834 0.0379515 0.09890693 -0.1272493 -0.06677511 0.053222086 0.063119054 -0.029182991 -0.04664762 -0.039453622 0.03429193 -0.006476845 0.06851809 -0.065727256 -0.0010336476 0.0022246258 0.03955483 -0.010406434 0.07179111 0.054142285 -0.025116263 -0.094432615 0.029767463 0.0043300726 0.015674477 -0.019391064 0.03203246 -0.115309775 -0.055804614 0.04679681 -0.019626606 -0.013454709 -0.058179744 -0.042759966 0.10751742 -0.014344438 -0.062969305 0.01967997 -0.07954759 0.020619294 -0.036912255 0.025851289 0.019666374 0.020220336 0.035730217 -0.06034367 0.066258214 0.069066755 -0.004213445 0.055807028 -0.02067623 0.027147844 0.019000722 0.08305179 0.100817315 0.06001137 -0.13065837 0.019231938 0.047632497 -0.07757928 -0.021919243 0.022503152 -0.042545963 0.024306409 -0.036094394 -0.00086769776 -0.08288057 -0.08181108 0.004898558 -0.038447335 0.055337302 0.0278956 0.014900646 -0.020040594 0.052453358 -0.062880225 0.024025025 0.026257968 0.001141196 0.016790703 0.017359328 -0.00018406061 0.0014322032 -2.2762454e-34 -0.041682053 0.009852679 -0.015193611 0.07134913 -0.003423338 -0.08318521 -0.009551338 0.031978603 -0.07065341 -0.04559962 -0.074904166 0.015742349 0.0057278867 0.022648234 -0.035746004 -0.02771199 -0.01165233 -0.02911081 0.06614582 -0.010080442 0.030028949 0.10160341 0.043387372 -0.068543695 -0.080867656 0.08495318 -0.058743205 0.04992817 -0.029540403 0.0077124373 -0.014621457 -0.020322861 -0.00880883 0.1085514 0.0031287984 -0.052645534 0.05641504 0.040011406 -0.007256505 0.00397712 0.10112908 0.042702056 -0.0058260225 -3.9697865e-05 0.029389134 -0.047210168 -0.014114195 -0.006152348 0.117582254 0.06842262 -0.023857918 -0.025326477 0.035706814 -0.07133885 -0.024745697 -0.03210281 0.007964119 0.0019993375 0.046895992 -0.032005247 -0.0036675155 -0.07013244 0.012749941 -0.11298596 0.04574727 -0.019556802 0.10747323 0.051849987 0.06013673 -0.0073207864 0.11444831 0.0500583 -0.054381754 -0.062310543 -0.06983596 0.05425209 -0.13925765 0.056892794 -0.020110305 -0.043742675 -0.029796777 0.059954368 -0.027020825 0.035706114 -0.0672484 -0.027906 0.010329868 -0.015464548 -0.049439102 -0.092630394 -0.049664605 -0.009143856 -0.032764245 0.06526732 -0.074907936 -2.0461911e-08 0.008169179 -0.05917686 0.09397267 0.018345833 0.13226494 -0.14530246 -0.006092713 0.08555782 0.08617749 0.04027903 0.080091834 -0.03151625 -0.041101985 0.03280773 0.04761404 0.05700296 -0.008205219 0.030982338 -0.028187178 -0.018829543 -0.02136502 0.018035367 0.052854054 0.034519043 0.09921777 -0.0041988483 0.08823371 0.042118534 0.040106706 -0.008075028 -0.04660022 -0.03468248 0.058081705 -0.10287027 0.08104499 -0.07094382 0.0074435263 -0.016405499 0.03714097 -0.06293535 -0.04416757 -0.037593357 -0.004795833 0.084040016 0.040488005 -0.0338089 -0.043979097 0.054302268 -0.006843685 0.012297484 -0.06727932 0.022933759 0.03502558 -0.0073144217 -0.0030233676 -0.035534825 -0.001703257 0.03344283 -0.017890533 0.049267124 0.03607911 -0.043606203 -0.010864096 0.0038827448

TITLE: Cleve Moler has died
VECTOR: 0.018807393 -0.033308253 0.00080398103 -0.09286565 0.05629196 -0.01912351 0.041860074 0.04218275 0.0025976284 -0.020919988 -0.02884433 -0.05197079 -0.026812216 0.01915685 -0.039893888 0.018919991 -0.08765461 0.008885158 -0.0052298866 0.009334373 -0.076869674 0.019495226 0.033458095 0.012266961 -0.086582676 0.017248102 0.024732647 -0.04196644 0.06268065 -0.021097962 0.009351942 0.004080463 -0.06544771 -0.024929825 -0.028236236 0.013355688 -0.03897401 0.024661604 0.007877742 0.025581928 0.023722228 -0.039799873 -0.08043335 0.022146303 -0.081348546 -0.091980934 -0.096126914 -0.06430294 -0.0038504258 0.046672095 0.021215007 -0.046489473 0.022569288 -0.092159115 0.0457646 -0.017876923 -0.011742045 0.005398142 0.05494801 -0.022491898 -0.011061588 0.038603608 -0.07847791 -0.0048788735 0.028380446 -0.06427177 0.09958656 -0.04561711 -0.027159957 0.08486743 0.055569753 -0.022796404 -0.06396645 -0.010065639 -0.061239388 0.046471477 0.05647585 0.008959546 0.017715927 -0.027033616 0.012584474 -0.017760834 -0.010321307 -0.021599352 0.006728802 -0.010204879 0.024582557 -0.072853506 0.011629997 0.0017339344 -0.005862275 0.085357755 -0.047744706 0.03501471 0.003965449 0.083963275 0.03951451 0.04578703 -0.007832439 0.06115233 -0.008506013 0.017736865 0.018225756 -0.051251262 -0.06894806 0.021116778 0.01780857 0.022691362 -0.04542239 0.090626456 0.00522132 0.0078004682 0.115308076 -0.0069206823 0.10835109 -0.006103935 -0.075263806 0.058333103 0.04410142 -0.000142611 0.029766323 -0.00610476 -0.091744296 0.024241332 0.021994302 0.04763528 0.050933532 -1.2229103e-33 0.004270151 -0.06641978 0.021798788 0.02030246 0.02806378 0.057985287 -0.005215658 0.023262968 -0.020902017 -0.06161983 0.054638088 -0.124729715 -0.05657962 -0.11298821 -0.0005644574 0.045993898 0.05344927 0.06405127 -0.046498258 -0.056487884 0.0052911965 0.08889158 0.01639752 0.0054593603 -0.02623706 0.08712376 -0.020077374 -0.017486867 0.027933363 -0.005711196 0.013991763 0.045854434 0.04595597 0.045336667 -0.07804102 0.0013561503 -0.00097171706 -0.029864045 -0.069342576 0.012390899 0.05516819 0.034742292 -0.019630292 0.0063253967 0.0029088785 -0.10124095 0.037045386 0.04224709 0.02062288 -0.03296952 -0.02460863 -0.028970527 -0.1691771 -0.002019854 0.055864926 0.10641799 -0.024120899 -0.05111298 0.029769972 0.0125763565 0.090530515 0.15185425 0.041061994 -0.04800194 0.04402941 -0.10940384 -0.029411746 -0.062796764 0.03839025 8.203602e-05 -0.0076466054 0.012973707 -0.043524496 -0.025455618 0.0032830187 -0.0577516 -0.00439323 -0.0046457187 -0.05078902 0.073878996 0.037551902 0.03587034 0.1063863 -0.022812279 0.013115519 -0.027812602 -0.05604156 -0.032546464 -0.062893465 0.09388126 -0.0013317713 -0.08209581 -0.05052527 -0.036456086 -0.13715327 -5.9842076e-34 -0.06377777 -0.059534583 0.116387814 0.082712755 -0.018786762 -0.03133568 -0.08874126 0.0024048036 -0.021919815 -0.061917115 0.0014049887 0.06129953 0.10082286 0.01863011 0.07018475 0.11956344 0.086373135 0.048650596 -0.11585452 0.014083879 -0.0024905733 0.011341623 -0.01603994 0.08902804 -0.021301575 -0.012919863 0.091975756 0.026788725 -0.057253968 -0.018888012 0.06439684 -0.04513791 -0.005926733 0.04820242 0.02644789 -0.029612 0.096734375 -0.008133318 -0.020332662 -0.03427729 0.0147605315 0.022979511 0.0014358107 0.035576627 0.018569738 -0.08352626 0.045898315 0.0137890605 0.07574071 0.016200984 -0.056637518 -0.062147293 -0.01763448 -0.016473616 0.016182356 -0.024323434 -0.061487056 -0.0663226 0.014468523 -0.053784452 0.01840259 0.041285057 -0.046914052 0.06248558 0.076755926 0.018517295 -0.042069003 0.005250643 -0.03684534 -0.040703423 0.05054914 0.038416255 -0.1450515 -0.036334317 0.009591664 0.10945466 -0.04174628 0.023915453 -0.02601331 0.052561752 -0.031734757 0.013854243 -0.05070199 -0.037673436 0.040936306 -0.005214241 0.04222694 -0.01193235 0.06944175 -0.09339586 -0.0026946317 -0.07410579 0.08071125 -0.011039946 0.017676322 -1.3097823e-08 0.0313397 -0.009769585 -0.070765205 -0.053332023 0.025548406 -0.015796604 0.022236848 -0.052183703 -0.03621013 0.17255971 -0.032202374 0.035324596 0.034812648 0.009730687 0.12595174 0.0348782 0.056710012 -0.012626669 -0.036126137 -0.054886248 -0.071116716 -0.017151209 0.054313824 0.051602595 0.053330924 0.012708447 -0.0056754346 0.048478074 0.015655424 0.029192505 -0.003074876 -0.0032526893 0.04120242 -0.026378071 0.062081207 0.0037854076 0.13356017 0.020160312 0.002862492 0.06499757 0.08794415 0.007535647 -0.036374085 0.002104514 -0.03312948 0.011023894 -0.04161041 -0.007874216 -0.058402613 -0.04436971 0.03968523 -0.016038429 0.00433268 0.035223015 0.03400727 -0.060416188 -0.0502206 0.02405986 0.00932251 0.015699945 0.017468145 -0.024376895 0.011712317 0.0025367856

TITLE: CODA: Rewriting Transformer Blocks as GEMM-Epilogue Programs
VECTOR: -0.14077823 0.043699373 -0.02460655 -0.015138899 -0.04893348 0.012036567 -0.104829244 0.0674636 -0.089603975 0.039221846 -0.030504938 0.06872941 0.0018837686 0.0015247174 0.024132885 0.015337892 -0.02241345 0.1451623 0.008302914 -0.057871807 -0.0029089844 0.07866126 -0.04419533 0.046783816 -0.001213299 -0.0045784977 -0.019060148 -0.027412526 0.02221612 -0.084991805 0.021892242 0.05427454 -0.0686978 0.036633823 0.024853209 0.11505252 0.016768448 -0.060125865 -0.060548402 -0.06557078 0.016614692 0.025053095 -0.053767856 -0.021047166 -0.0011790977 -0.037880655 0.039704837 -0.01614015 -0.019053012 -0.008429498 0.027678974 -0.020500243 -0.056202173 0.022651454 0.031948768 -0.0016007589 0.06647875 -0.09608172 0.05768475 -0.016393313 -0.05436904 0.05866745 -0.044288073 0.02526207 -0.025176648 0.00511214 0.063685805 0.04612013 0.016270526 -0.047007155 -0.0723551 -0.05947729 -0.06594885 0.054779407 0.029171325 -0.026694505 -0.0032758156 0.018202815 -0.101563625 -0.044833645 -0.002117774 -0.007910147 0.016567528 0.057490814 -0.0024124496 0.03878988 -0.011745338 -0.0023270312 0.09414728 0.071891814 -0.05193019 -0.06426256 0.13799226 0.043914136 -0.044115745 -0.05676169 0.04892957 -0.06437081 0.014638908 0.09262283 -0.028006462 -0.019350298 0.036858622 -0.045962065 -0.042222984 -0.059337184 0.025065785 0.074685834 -0.053205665 0.0074304664 0.10094932 -0.057354506 0.011828424 -0.12220578 0.11067948 0.0035265142 0.036933735 0.0004314476 0.020242149 0.030124495 0.076720566 0.09663651 0.009244228 0.062234994 -0.0030005532 0.024232594 -0.05627851 3.7354685e-34 -0.00816687 0.061075278 -0.023077855 0.08869498 -0.011898861 0.034551423 0.085783616 0.007640496 0.02547976 0.0022889094 -0.0049708406 0.07067112 -0.027353449 0.012134406 -0.07026525 -0.03467346 0.028750625 0.09206778 -0.036534738 0.015594369 0.011125436 0.05574263 0.0032200336 -0.09485345 -0.0038574247 0.05073785 -0.010976946 -0.074554786 0.05291162 -0.014232679 0.015547058 0.039278902 0.024567286 0.008940144 0.040556666 0.015441114 0.0035789388 -0.088343576 -0.008364211 -0.05247409 -0.009691957 0.020224817 -0.077359065 -0.07115625 0.06448752 -0.08479748 0.057301234 0.030051975 -0.01624899 -0.084567204 0.08460108 0.10195417 -0.07182172 0.047183685 0.060691096 -0.047804363 -0.051291212 0.010223313 0.0934658 0.023595126 0.005837011 0.07164545 -0.04663096 0.0010650367 -0.01151353 -0.022305695 -0.025522029 -0.035377156 0.007902008 0.023529755 -0.09625346 -0.03063633 -0.021289907 0.11415571 0.00075527857 -0.08681728 -0.0071771317 -0.0041821343 -0.022301024 -0.0505625 -0.015782932 0.051407006 -0.05353653 -0.033982527 0.026776792 -0.049122367 0.10132705 -0.090359904 -0.057014864 -0.028207403 -0.019293703 -0.0205997 0.049053837 0.042451728 0.036823783 -9.228507e-34 0.038433615 -0.07186963 -0.07755573 0.034047548 -0.078376524 -0.11390862 -0.013284 -0.03764318 -0.0496824 -0.04497002 -0.026939752 -0.02452481 0.06611751 -0.041657344 0.01836615 -0.039214917 0.028145786 -0.0993523 -0.037083853 0.046071798 -0.037926953 0.08221949 -0.058873314 -0.022089796 -0.010760974 0.008893227 -0.06896569 0.08869279 0.11503984 -0.02825416 0.017904332 -0.023301186 -0.027559377 -0.056963373 -0.07099975 0.048970778 -0.0077723227 0.06457961 0.0022270856 -0.06655724 0.095013864 -0.036511004 -0.03447253 0.052338216 -0.019291243 0.029197056 0.028735723 0.05309196 -0.027663652 -0.0215259 -0.028201582 -0.03818498 0.017786793 -0.06664638 0.034899235 -0.031247072 0.056245018 -0.010101349 0.027059132 -0.05555472 0.028421825 -0.0059861485 0.10289737 -0.11622086 0.03312083 -0.017059421 0.03214448 -0.061957087 -0.054345116 0.029710991 0.03135935 0.025124587 -0.022783866 -0.024109757 0.1368825 -0.015034257 -0.029863238 -0.037127554 -0.06232924 -0.02066005 -0.0970387 -0.039005905 0.010827879 0.05422043 0.052155692 -0.0065580225 -0.00032250566 0.036835004 0.049411107 0.01672017 -0.08844166 0.032525666 0.06469647 0.046973728 0.019015478 -1.7962204e-08 0.011817494 0.028707894 -0.055332188 -0.009574843 -0.07382676 0.020237245 0.017878026 0.016993148 -0.040186994 -0.021047441 0.051175322 0.037691806 -0.003216678 0.0319217 0.015506199 0.07141536 0.019345207 0.044618055 -0.056967374 -0.015487182 -0.0066693616 0.09298236 -0.016946143 0.018023122 -0.0601109 0.04658233 0.017709617 -0.008495829 0.02726772 0.014375331 0.09074806 0.044789232 0.07536463 0.05138104 0.0035641822 -0.005603948 0.051313367 0.101608865 0.027270835 -0.039956495 0.029880881 0.049106862 -0.07288944 0.066445015 -0.058460776 -0.066969484 -0.015108499 -0.039850887 -0.06537528 0.0074221226 0.027242998 -0.0018820517 -0.044359718 0.013401938 0.038264044 0.024406448 0.04114976 -0.063206196 -0.0051952777 0.050870556 0.004064976 -0.089144684 -0.009591593 0.018998584

TITLE: Blog ran on Ubuntu 16.04 for 10 years.
VECTOR: -0.014680237 -0.019665144 -0.0018786289 -0.0025546858 0.09239698 -0.057110004 -0.07911711 -0.025573958 -0.03512526 0.021627188 -0.021777887 0.14251061 -0.019409066 0.10619675 0.012088931 0.01367805 -0.031372637 -0.09890849 0.0041625304 0.05445077 -0.061657835 0.04285122 -0.022669356 0.018636253 0.023314005 -0.038426127 -0.09234712 -0.0672688 -0.06551379 0.016592054 0.018200925 0.012952854 0.021780906 0.021452047 0.0681074 -0.035190303 0.029638574 -0.041043665 -0.06088427 0.056555092 0.056747887 -0.023617888 0.021920392 -0.0054501905 -0.058796212 -0.011636842 0.015568525 -0.063163385 -0.042263955 0.029624637 -0.036479846 -0.035644405 0.04416435 -0.11942157 0.008425114 -0.037830736 -0.01949459 0.054808225 -0.026672525 -0.048230313 0.040152725 0.0013122981 -0.089834444 0.08615105 -0.027250847 -0.04972187 0.041585796 0.009528539 0.060452934 -0.024609199 0.030796792 0.063572556 -0.04111245 -0.019824397 0.019570759 0.08551073 0.08731572 0.005560441 0.038358994 -0.09419249 0.050861575 0.028384006 -0.008683561 0.091522746 -0.05403728 0.034293845 0.08342314 0.012070847 0.04261182 0.017187156 0.055536516 -0.012580998 0.07474837 -0.0031364057 -0.023209801 -0.06901702 0.042299844 -0.008536963 0.045400407 0.039248407 -0.040793344 0.004232238 0.03013886 0.026700962 0.07502867 -0.01946362 0.03521458 0.10569354 0.027934913 -0.032045312 0.019613307 -0.020350171 -0.019744221 -0.020152166 0.07897559 -0.11601716 0.050554417 -0.09109165 -0.041398637 0.05015835 0.05613127 0.027329242 -0.034435768 -0.021184057 -0.021539856 0.024278505 0.06952265 -9.795822e-34 0.0011374805 0.03958157 -0.02306489 0.019950768 0.034829203 0.02859838 -0.07471578 -0.015284702 -0.12535161 -0.020203555 -0.00089179364 -0.003994265 -0.028967718 -0.00013273345 0.034023598 -0.06188201 -0.03158378 0.024567686 0.08661814 -0.027332822 0.09261029 0.06657238 0.0043972773 0.058234517 0.039245702 0.0022130853 0.03757016 0.0040538455 0.012074731 -0.011871292 0.030267175 0.026559971 -0.09407611 -0.04737479 -0.02923182 -0.023825211 0.012527362 -0.06651666 0.0013884399 0.0358149 -0.07641557 0.03884182 -0.04098914 -0.040974118 0.11369944 0.055017825 -0.044565625 -0.008162512 0.019322842 -0.0052470067 -0.032213718 -0.0020839772 0.016201384 0.016615637 -0.060092285 -0.016956585 0.03081186 -0.12385414 0.08236629 -0.04006485 0.04976578 0.00895676 -0.05895169 -0.10474981 -0.03310932 0.0055270754 0.040555872 0.014326498 0.010132746 0.08067483 0.037580065 -0.1038851 0.0017716809 -0.0187397 0.0040484737 -0.0003346203 -0.06093637 -0.07942143 -0.060081966 0.052209835 0.024274651 -0.025690254 -0.0035299673 -0.018879382 0.05657958 -0.02831394 0.10043924 -0.0062113246 0.025541501 0.086785585 0.031491276 0.084076814 0.10658867 -0.024641242 0.0058212406 -3.57552e-34 -0.06914828 0.024048463 -0.041183233 0.057730436 -0.05349648 -0.046517767 -0.09884079 0.123400435 0.0058552786 0.023656642 0.052486435 -0.046125136 0.04964575 0.08852913 0.017517582 0.10934419 -0.007568301 -0.111359544 -0.100970894 0.02227688 -0.02268644 0.046616487 -0.08109267 0.01010926 0.11897964 -0.032447416 0.06727534 0.029905166 -0.039868254 -0.12938024 0.023469035 -0.026957162 -0.037166804 0.030329997 0.020654656 0.022012413 -0.026146227 0.015611946 -0.031446546 -0.11007832 0.046959553 -0.010929456 0.054661788 0.058126282 -0.08077237 -0.002242168 -0.078518726 0.020019943 0.001559211 -0.057858348 -0.030986637 -0.08920625 0.096587375 -0.06411356 -0.00070536684 -0.043906648 -0.024382593 0.05000978 -0.02112958 0.0011028802 0.0010377622 0.047759626 -0.07455632 -0.027385801 0.010365502 -0.073631145 0.035669856 0.0062052836 -0.13477504 -0.02494679 0.13255078 0.03872827 -0.02806141 -0.004262988 0.039296765 0.03911641 0.0057657277 0.015710065 -0.0652112 0.041729107 -0.03266316 0.011414029 0.022329943 -0.020884069 -0.025086341 -0.024873175 -0.0286064 -0.009173764 -0.028026337 0.031092081 0.019834882 -0.10935964 -0.013127626 0.05971957 0.04829639 -1.8549256e-08 -0.042044852 0.0038053563 -0.019912805 0.025862787 0.107392296 -0.011253156 0.11729682 -0.0022942931 0.006441542 0.10487087 0.046368543 -0.035030086 -0.036705494 0.03324281 0.043241683 -0.06729171 -0.02782925 -0.0008142103 0.010820656 -0.017042259 -0.006421857 -0.008122883 -0.027595095 -0.06803943 -0.039591227 -0.026298078 -0.030801376 -0.016322596 -0.038988806 -0.090637565 -0.046338525 0.009297667 -0.060831852 -0.07545996 0.061659046 0.008861062 -0.06364167 0.034670822 0.015816279 -0.08192888 0.038469136 0.007111831 0.096081026 -0.0008873463 -0.024263186 0.020728078 -0.025507078 -0.03637471 0.063423544 0.0007611216 0.02135206 0.020329624 0.07775864 0.04306322 -0.04004131 0.005494926 0.035594516 -0.013726671 -0.019799726 -0.031197477 0.03275023 -0.03291372 0.02083797 0.008462737

TITLE: I migrated it to FreeBSD
VECTOR: -0.02405005 -0.017958077 -0.045311928 -0.07110694 0.10910639 -0.02218937 0.009708037 0.012880858 -0.011257651 0.011398085 -0.0046932143 0.013628877 0.040903956 -0.10162304 0.0066527496 -0.006339539 -0.02172408 -0.059596103 0.027734606 0.026983138 -0.13540223 0.0013127488 0.005501879 -0.06110049 0.058817662 -0.03387658 0.05669331 0.06513723 -0.018814927 -0.065870196 0.021701844 0.026874397 -0.019813104 0.0044523473 0.109820895 0.017822322 0.12681556 -0.029966166 -0.10650847 -0.047665793 0.011605245 0.01385622 -0.050465338 0.10014343 -0.04041898 0.06402597 0.03128771 -0.02840993 0.06367582 -0.017355654 -0.013873608 0.01042291 -0.033239838 0.02410869 -0.015433122 0.06960206 0.020691365 0.01985096 0.016669355 -0.018120905 0.02670128 0.04903648 0.044280834 0.08591239 -0.021664137 0.03854315 -0.06627496 -0.02623569 0.0173577 -0.15684164 -0.09210427 0.00096164073 -0.100535296 0.06381195 -0.021152485 -0.015279139 0.05108068 0.028868033 0.007933101 -0.030102681 -0.044263672 -0.019580588 -0.017564952 0.055580795 -0.010692433 -0.04028192 -0.01869824 -0.017951064 -0.02652325 0.025594614 0.11559985 0.013491519 0.018342134 0.021330832 -0.11270128 -0.101044044 0.008404718 0.06353966 0.015693814 0.07587002 -0.029006407 -0.039165944 0.0035552992 0.0068583353 -0.09590687 -0.022723708 0.0269837 0.07088329 0.012475106 -0.052275468 -0.016310005 0.0089972755 -0.015862767 0.040292107 0.025694946 -0.059616607 -0.17854853 -0.014883104 -0.02131708 -0.046376795 -0.013083554 0.019773455 0.005732449 0.0104811415 -0.16747868 0.02885227 -0.01312028 -3.0372215e-33 0.027836332 -0.032401934 0.011340372 -0.046340648 0.053644367 0.027582854 -0.01647287 0.0073463474 -0.12981313 -0.026268369 0.02458198 -0.061797615 -0.045398124 0.02784475 0.035289023 -0.056705926 -0.029566888 -0.01954494 0.087108076 0.0002421417 -0.015600886 0.029652096 -0.0026986252 0.011534185 0.0014457284 0.0897115 -0.010720884 -0.014532241 0.13904683 0.025832472 -0.069470674 -0.013172474 -0.046383537 -0.052437354 -0.033014823 0.045775205 -0.024804784 -0.013118016 -0.09045329 -0.0447701 -0.0016648085 -0.07604969 0.0025010505 -0.06309927 0.09117998 0.020030228 0.037487455 0.03111617 0.05970301 0.003611069 -0.017053112 -0.077289574 -0.003447561 0.095028915 -0.02296142 0.017062094 -0.012146944 0.017166361 -0.0016308499 -0.026744049 0.07739616 0.08577674 0.005648904 0.031844173 -0.008827172 -0.021432495 0.017862683 -0.007027505 0.00097085943 0.016886305 -0.047715113 -0.03978644 0.07400881 0.08354632 -0.029509302 -0.018257927 -0.073454276 0.008777074 0.0010180933 -0.042859994 -0.011358255 -0.033295784 -0.09698806 -0.04696992 0.087953374 0.012433337 -0.0065590004 -0.0905082 -0.008591751 0.04263509 0.011684017 0.039686486 -0.03553157 0.042850677 -0.052378446 1.1411356e-33 -0.0794807 -0.07992736 0.021976948 -0.0010154191 0.00028960334 -0.0136884665 0.013148459 0.12039032 0.048324566 -0.036322787 0.04184436 0.022552561 0.0016670561 -0.04802362 0.063958004 -0.0046832124 -0.015838256 -0.00011515657 -0.058537304 -0.06088276 -0.022393309 0.077738024 0.012705167 -0.011382175 0.037073962 0.026879586 0.0470815 0.11928899 0.005052889 0.060326055 0.05947223 0.073918626 -0.14194497 0.02520241 -0.06472217 0.035430096 -0.0134155415 -0.032808483 0.037229545 -0.09550585 -0.08816335 -0.00882562 -0.08174055 0.08509851 -0.032719173 0.06276515 -0.07724144 -0.09968091 0.058850322 -0.011398781 0.042478777 -0.0077132946 0.12260842 -0.04633092 0.0021546136 0.033810053 0.0227803 0.035078626 0.019470936 -0.07265269 0.034374032 0.06852829 -0.04309766 -0.04239142 0.04366982 0.0072288085 0.072833434 0.02214116 -0.039521895 -0.034680534 3.1798045e-05 0.090417 -0.037934393 0.041989263 0.02941319 -0.012860702 -0.01070114 0.11369288 -0.05772715 0.041060828 0.032457203 0.030194424 -0.018902486 0.040341247 -0.049648862 -0.03436911 0.052244004 0.016459668 0.0030045637 0.015340874 -0.08154407 0.09016166 0.02275763 0.027043462 0.06473619 -1.519033e-08 -0.047031205 0.019809822 0.055870607 0.04662676 0.108894244 0.040086206 -0.021574402 0.04368794 -0.009356287 -0.022194784 -0.10395394 -0.0015321516 -0.03084074 0.055862907 0.0022671197 -0.017643135 -0.0016820186 0.015108963 0.007298879 0.0039846296 0.033017773 0.06426404 0.05403255 -0.02830278 -0.026520101 -0.055129364 0.04767085 -0.009096215 0.022460587 -0.017332917 -0.03073819 0.017029176 -0.026285069 -0.053384367 0.03871794 0.058548223 -0.091243654 0.07981327 0.013690509 -0.035985302 -0.043935277 0.08441191 0.052652907 -0.020478377 -0.056588415 -0.049268864 -0.05059849 0.034747228 -0.048241626 0.021719145 0.056685854 0.019679338 -0.0222857 0.030193498 0.0058438894 0.05321846 -0.072194345 0.0018769315 -0.01621319 0.030559277 -0.007252419 0.014065647 -0.05624638 -0.02159231

TITLE: The surprising story behind the first British person in space
VECTOR: 0.004487499 -0.025419861 0.04170627 0.039090637 -0.06115008 -0.025695542 0.09985331 -0.009079024 -0.04229213 0.02264464 0.011582287 -0.011097055 -0.030844973 0.0076238527 -0.104710355 -0.0032599878 -0.0031689892 -0.0056579853 -0.022603612 0.049701806 0.01052527 0.0019395223 4.6368834e-05 0.0523586 0.04731003 -0.0020083752 0.07485193 0.041295838 0.02209155 0.0036372049 0.010364123 -0.08579576 0.033779845 -0.004537457 0.026922677 0.066327415 0.10163 -0.0023110185 -0.010233179 -0.043225963 -0.040722404 -0.086426675 0.07203898 0.07513883 0.0019253966 0.0154081285 0.027059 -0.015158428 0.04479834 0.0049604164 -0.016096849 0.06297112 0.0072597605 -0.112857044 0.063481785 -0.105904154 -0.04983003 0.009476759 0.017690036 -0.17330196 -0.0654107 -0.046822745 0.041497048 0.021150181 0.022974491 -0.0322324 -0.04034224 -0.031247092 0.070408285 0.04564663 -0.03347152 0.024118692 -0.03630424 -0.036630824 -0.021438794 -0.007163401 0.037782606 0.07167494 -0.02244511 0.010579808 0.040243156 -0.014887313 -0.1103449 0.03824831 -0.045745198 -0.088073604 0.0083310185 0.007138812 -0.04431529 0.010836984 0.034632996 -0.04697891 0.045772985 0.022668041 0.0061619505 -0.04731192 -0.05731389 0.06080042 0.028981049 0.02503589 0.0029122082 0.0070444047 0.039528802 0.1630167 0.010667805 -0.08826828 -0.012354491 -0.0059451456 0.051053938 -0.12211318 0.011282944 -0.026018556 -0.066072635 0.07982703 0.005825246 0.017743222 -0.04268074 -0.024714572 -0.046533007 -0.020335061 0.028826376 0.042616148 -0.027087286 0.00655435 -0.105210915 0.058895517 0.074383706 -3.6861038e-33 -0.025411472 -0.04184197 0.0043578423 0.08145743 0.016698964 0.0010331052 -0.08165563 0.09638185 -0.0018283122 0.018097684 0.020612886 -0.03237474 0.020884465 -0.071390234 -0.11619295 0.102159165 -0.07238479 -0.056614216 0.0235817 -0.033015966 -0.01707291 0.056805573 0.028031224 -0.052361917 -0.012934345 -0.018022135 0.006275385 -0.046667475 0.030107368 0.015719095 -0.058861256 0.04608593 -0.048554216 0.0051932056 -0.02103116 -0.0065848827 0.03257809 -0.09142288 -0.02852537 0.051616687 -0.03786391 -0.0246468 -0.013606235 -0.06162944 -0.0136713525 0.03782829 -0.030840661 -0.053933028 0.047276914 0.108114466 -0.028270233 0.029085046 -0.061261307 -0.020920908 0.073432125 0.01258632 0.04311792 0.028656278 -0.004964261 -0.01853784 -0.016370893 0.02942252 0.06382729 0.030458363 0.023453355 -0.055841267 0.011672409 -0.0323899 -0.12778744 0.011993708 -0.05168367 0.0680511 -0.0039917096 -0.081064105 -0.02715035 0.04385091 -0.0017283486 -0.042700835 -0.07602244 -0.022447836 0.010400634 -0.0002852084 0.021767123 -0.024077792 -0.09534576 0.036239177 0.009599802 -0.0087598795 -0.0020916588 0.013590767 -0.025669182 -0.07048091 -0.0055525736 -0.07324286 -0.101457335 5.9200136e-34 -0.07709631 -0.007503952 0.0089772595 -0.019916588 0.0060462495 -0.011183829 -0.020557435 0.05373668 -0.035766292 0.0610143 -0.0027950904 -0.00041903122 0.13649057 -0.03995186 0.076776445 -0.016767057 0.020022344 -0.006483988 -0.02677247 0.06605696 0.0707084 -0.03820274 -0.052248426 -0.0916045 -0.062331107 0.053130027 0.12237195 -0.0052640075 -0.039518647 -0.029971436 -0.01249317 0.16779761 0.002853679 -0.052065656 -0.029387997 0.038374066 -0.035569742 0.008092985 0.014685177 0.027894832 -0.045387793 0.056530837 0.053654056 -0.015497622 -0.0377743 -0.071644604 -0.0060403864 0.054746833 -0.046363156 0.04209215 -0.056336865 0.07950528 -0.0043744165 -0.0434881 -0.0148334205 -0.017465493 -0.05447744 -0.030995512 0.13212031 0.05186343 -0.044427466 -0.042636145 -0.015689587 -0.03871076 -0.055418532 -0.04933433 -0.048559386 0.13948593 -0.05102873 0.034851275 0.088863984 -0.07290936 -0.043003585 0.0074768253 0.03328973 0.065760754 0.043199044 -0.052383374 0.05950457 0.0032225663 -0.005973896 0.044026475 0.082209 0.042916574 0.037007686 0.04460452 -0.015505411 0.05860352 -0.02795322 -0.002667387 -0.059036713 -0.018185476 0.019244777 0.046774372 0.014061263 -1.7730601e-08 -0.10934452 -0.005966746 -0.008838112 0.06442808 -0.018062573 0.014852158 0.027244605 0.07167358 -0.109950416 -0.02830058 -0.12022739 0.015565568 0.022254063 0.018733772 0.040067498 0.029954411 -0.004900847 -0.061070222 -0.011662902 0.052131105 0.054251995 0.051527124 0.09923519 -0.054546345 -0.05580514 0.093003616 0.07119607 -0.015800327 0.022306902 -0.039631534 -0.052015755 0.022136834 -0.046310823 0.022198383 -0.0628915 9.991642e-05 0.051510658 0.047018357 -0.023852687 -0.07167004 -0.0038562862 0.00992727 0.018432897 0.06477548 0.03840277 0.105003886 -0.00931791 -0.035755213 -0.046297483 0.05363574 0.058349114 0.0030460851 0.008608687 0.06316052 -0.041191015 0.023290575 -0.029966837 0.04629561 -0.048718564 0.05851151 -0.04810593 0.031278737 -0.06458037 0.04396459

TITLE: Was my $48K GPU server worth it?
VECTOR: -0.022497008 0.028263323 -0.007867676 0.06247234 -0.054437157 -0.07619913 -0.045093544 0.020722052 -0.06933102 0.0013957265 -0.053996604 0.08325588 0.024107177 -0.015372456 -0.035160206 0.03925888 0.038733188 -0.065825745 -0.035794035 -0.04243789 -0.15427974 -0.054745983 -0.096593075 -0.053474896 0.07516923 0.07648507 0.035939533 0.0018166779 -0.023782786 0.03512045 -0.024344185 -0.0024522818 0.0060645 -0.020004865 0.0072246287 -0.0020964104 0.043212216 -0.108669244 -0.027195014 -0.08194141 0.009964759 -0.045960803 -0.034285963 0.08316032 -0.028706968 0.038634587 0.052647136 -0.00805347 0.05704623 -0.06318976 0.021660889 0.0104220575 0.019938635 -0.033218965 -0.11044792 0.04866366 -0.039161146 -0.07016709 0.037909843 -0.01282022 0.016222676 -0.05512995 -0.0143817235 0.04772522 0.082975 -0.036236454 0.046074115 -0.112843655 0.033614874 0.02924737 0.024814487 0.032727856 0.04258317 -0.067244 -0.011623548 0.030697145 0.041579157 -0.066850066 0.042564508 0.03336601 0.069763936 -0.0456419 -0.000713196 0.034794614 -0.008846769 -0.06747297 0.0882523 0.024415715 0.035396796 -0.07887967 0.088442035 0.04439622 0.036261834 -0.016731234 0.025343329 -0.012545135 -0.05943967 -0.0011968705 -0.053799503 0.02394631 -0.005108326 -0.014985829 0.028012812 -0.030908938 -0.009433819 0.028328868 -0.045998808 0.12215376 -0.007814933 0.024108153 -0.027695829 0.0557863 -0.027509173 0.10379868 0.051960506 0.0068169003 -0.047738828 -0.067846596 0.0154461255 0.06792803 0.002120073 -0.049730852 0.028916666 0.07644192 -0.048710257 -0.03472346 -0.08694695 -2.4441516e-33 0.032549705 0.017783104 -0.0054555233 -0.12557511 0.052006964 0.0071202386 0.025731329 -0.018577892 -0.015471461 0.036287785 0.0021723844 0.11117438 0.024415366 0.0030108488 0.04209703 -0.051686887 0.010320408 0.05843266 0.006674251 0.022103151 -0.020765565 0.0052312976 -0.014887798 -0.016248092 -0.022153314 0.061740708 -0.060069423 0.024877438 0.057106175 0.009329096 0.020117568 -0.12285878 -0.0520051 -0.013434121 0.04760803 0.009249707 -0.0002585885 -0.08449703 -0.00474371 0.06337341 -0.08439761 0.09544921 0.02058692 -0.037353236 -0.07453082 0.09718063 -0.012923087 -0.045580644 -0.09275709 -0.01168703 -0.099124044 0.009171958 -0.07621155 0.05938894 -0.01831368 -0.023498787 0.07143204 0.06556606 0.10079163 0.053889185 -0.070230685 -0.07198973 -0.050123 -0.0058871987 -0.05429989 0.022551088 -0.025039881 0.03518362 -0.060797345 0.043931074 -0.03625123 -0.012386799 0.04078942 -0.040351734 0.10649931 0.018368274 -0.08195867 -0.056887258 -0.022719434 0.025743954 0.041765347 0.006216129 0.0044653895 0.03432629 0.023324067 0.033657078 0.015515002 0.017730718 -0.011410367 0.013654842 -0.10417663 -0.006270351 -0.0026052622 -0.0042963363 0.046268538 7.5688924e-34 -0.047817577 0.0011033698 0.08182879 0.121829025 0.06800248 -0.0044267857 0.012165437 0.07191725 -0.009672475 0.04664447 0.07027552 0.09662924 -0.010115735 0.07040973 0.006876023 -0.0052459687 -0.038058262 -0.084285654 0.01542659 -0.06561078 -0.061237253 0.09886022 0.021502063 0.02283537 -0.022650927 0.058827076 -0.029635165 -0.034648653 0.01765962 0.04225504 0.08430214 0.062453974 -0.00431549 0.01734365 0.0624394 0.036504254 0.12675196 0.017525947 0.004971245 0.030470422 0.023939146 -0.030843044 -0.0013363886 0.028355774 0.03380275 0.022423113 0.0012481976 -0.062633164 0.04576175 -0.006747797 -0.0025627415 0.022683771 0.042611845 0.0051587205 -0.018235922 -0.13219361 -0.007507574 0.092017196 -0.020509005 -0.082622 0.027851915 0.05361051 -0.045450587 -0.026442192 0.027225599 -0.03887896 0.050061353 -0.050326638 0.037738048 -0.029612869 -0.07102638 -0.0645473 -0.08631146 0.010102193 -0.012002817 0.07822742 0.0571576 -0.0009909777 0.05426869 0.088246375 -0.08511336 -0.042297773 0.029024871 -0.04901364 0.09882029 -0.04078044 0.010948381 -0.06045468 -0.04088016 -0.0043158405 -0.052799404 0.00973195 -0.023999132 0.018654479 0.006320717 -1.37699185e-08 0.014111144 0.025966987 0.037849475 0.08642645 -0.03423965 -0.040886488 -0.014209944 0.049729303 0.015492461 0.04934303 0.03430794 -0.11626496 -0.017933365 -0.029044239 -0.028670073 -0.053494453 0.048367884 0.0045083705 0.004439942 0.013512686 0.0446855 0.0118094925 0.028925227 -0.05930537 -0.06759535 -0.01729552 0.10382451 -0.0011480363 -0.041849703 -0.019866848 -0.014657687 -0.0017534035 0.011027674 -0.0060453196 0.107193984 -0.09812226 -0.04746454 -0.0055127493 0.06800159 -0.000530258 0.0036406273 -0.046591897 0.00491193 0.031610936 0.05886839 0.0464221 -0.050112158 -0.044401523 -0.025753513 -0.017973773 0.031977065 0.051393285 -0.042524368 0.051241886 0.03932262 -0.035924453 -0.014503843 0.033492137 -0.026907722 -0.011714045 -0.03227205 -0.12996015 -0.14781578 -0.057186168

TITLE: Uv is fantastic, but its package management UX is a mess
VECTOR: -0.0359082 0.039849482 0.0653318 -0.044663433 0.08964648 -0.048792757 0.010728544 0.01642574 -0.113362044 0.027330473 0.05138521 0.020401118 0.02328545 0.09592309 0.06518243 0.021436073 -0.0078301625 -0.095733136 -0.0053894385 -0.041795917 -0.044624306 0.015068631 -0.0077149007 -0.032143313 -0.018885026 0.079573035 -0.059728764 -0.015536398 0.007265678 -0.083682716 -0.021612175 0.025410693 0.02588272 -0.05228121 -0.00014309096 0.11107159 -0.02157897 -0.123784624 -0.062590726 0.031228688 -0.03887657 -0.015366484 -0.029557807 0.029917357 -0.041380156 -0.033239365 0.03177268 -0.00047848 0.0015096009 -0.042037435 0.047212992 -0.026074387 -0.059041042 -0.039726872 -0.02928951 0.034340166 -0.014700901 -0.002271348 -0.056466684 -0.016626535 0.044395998 -0.088806964 -0.06667546 0.058228217 0.04305104 0.035917774 0.031952094 0.000948728 0.013989401 -0.08003778 -0.13854018 0.015556137 -0.005622954 0.08482934 0.0049075857 0.05636847 0.07192216 -0.019827655 0.06715328 0.067356795 0.037073098 0.039852586 0.005329694 0.061117698 0.054857526 -0.006232454 0.008579007 0.026733303 -0.018463096 -0.009459672 -0.028375365 -0.0082481345 0.060895514 0.03331182 -0.09093061 0.058756813 0.024261363 0.030146392 -0.04654393 0.022955718 -0.03018364 -0.04247505 -0.030356258 -0.017585747 -0.034435656 -0.0658484 0.03183846 0.05569616 -0.003186505 0.014219076 -0.07923201 0.02387736 -0.08044337 -0.11202739 -0.07041842 0.022284357 0.05233018 -0.035749577 0.026126966 -0.016962847 0.03415756 0.01890891 0.10162276 0.0027581379 0.008372581 0.00486833 0.11497503 -2.3624419e-33 -0.036118988 0.041514732 -0.047602385 -0.01375634 0.066783234 0.055274755 0.036894325 -0.010608216 -0.069792666 -0.08119026 -0.028265513 0.110089615 -0.08155118 0.11852226 0.08946638 -0.045830432 -0.017822333 0.076118134 -0.031250358 0.0129369255 -0.052646082 0.017846629 0.053768735 0.02178094 0.041100636 -0.01255281 0.07077275 0.060054816 -0.002685861 -0.0044652084 0.00059287786 0.0061227437 0.004133559 -0.015183846 0.011926313 0.040630333 -0.13733405 0.0072184587 0.029396344 0.044774402 -0.05160682 0.124916516 -0.021980274 0.05316062 0.058671072 0.061603278 0.04258831 -0.0715674 -0.016322475 -0.08550921 -0.055408128 0.035406526 -0.016632134 0.04484963 -0.0064028986 -0.01624364 0.11686447 -0.00066105876 -0.0627963 0.0058110706 -0.10230431 0.010202864 0.016283706 0.0075606834 0.01855038 -0.057118945 0.010361072 0.017567635 -0.013109911 -0.047026426 -0.02811337 0.04436506 0.09070062 -0.032902278 0.004750985 0.031310845 0.032845456 0.04943557 -0.048850123 0.009373284 -0.0070114476 -0.00128982 0.092430644 0.012715224 -0.010748538 -0.00044484783 0.027716525 0.029311229 -0.025830323 0.07882995 0.04269089 0.028929995 0.06818639 -0.037484556 0.060585555 7.0638004e-34 0.06007576 -0.026422895 0.02618138 0.007135911 0.034738947 -0.00087104493 0.012100065 0.07751937 0.0030125312 -0.046029422 0.049579713 0.027925154 -0.06934328 0.05080946 -0.060130533 0.029641509 0.07222221 -0.06875296 0.011585097 -0.095143646 -0.009275116 0.11302102 -0.015215309 -0.014528053 -0.02962754 -0.033853892 -0.0104303835 -0.055585444 -0.00063557096 -0.027336828 -0.01527761 0.023167266 -0.021532003 0.0071007367 0.09346307 0.011359208 0.00781539 0.08443621 -0.046210553 0.043617845 0.0347916 -0.116475515 -0.10120052 -0.081470005 0.005350783 -0.0023553735 -0.051832065 -0.06776207 -0.050278112 0.029090112 -0.08298436 -0.024369815 -0.01354283 -0.055520274 -0.053133573 -0.04259586 0.013444803 0.08859288 0.018523786 0.015794326 0.03491711 0.045698065 0.045131095 -0.06653198 -0.02223695 0.06262771 0.031904563 -0.008994671 -0.041157696 0.007885581 -0.010938995 -0.077138014 -0.05330855 -0.019642472 0.0680433 -0.04698496 -0.027117657 0.009950122 -0.086390086 0.00810077 0.02937011 0.03714522 -0.07675087 0.08646131 0.03916539 0.01183316 0.014742044 -0.104163036 -0.036997084 0.010797871 -0.09700623 0.040727276 -0.12868936 0.03668267 0.06629457 -1.8811908e-08 0.01760005 -0.0480105 -0.011857094 0.021951586 0.012616446 -0.00062758906 -0.043762214 0.08906064 0.038313672 0.04256437 -0.012282493 0.018962627 -0.100276075 0.055806305 -0.021416055 0.013185158 -0.017090872 0.055720273 -0.022200372 -0.0964386 -0.06925661 0.02915488 0.0931266 0.04944673 -0.0020579 0.036624495 0.092485234 0.056310475 0.10294692 -0.053744636 0.059921782 -0.038072098 0.027948657 0.019408185 -0.0017976582 -0.029004358 -0.056910466 -0.017531795 0.045654863 0.021172412 -0.039208446 -0.035462245 0.06553308 0.067965396 -0.010258201 -0.01671364 0.0027301346 -0.0405287 -0.0061385664 -0.06901102 0.02244731 -0.085877 -0.055428255 0.035019126 -0.021947743 -0.010714717 0.042781044 -0.11153219 0.04809607 -0.03278163 -0.03845775 -0.10240213 0.0043178746 0.047368985

TITLE: Valve removes free game from Steam after players discover it contains malware
VECTOR: -0.05206598 0.06695158 0.020169917 -0.050880894 0.0672337 0.03741564 0.07425428 0.007646715 0.07388055 -0.0024715122 0.018714583 0.028997067 -0.018579207 -0.07686262 0.0013066258 -0.020261914 -0.076156795 0.010271561 0.013897833 -0.06414749 -0.0581695 -0.033671368 -0.015894478 0.02914045 0.026129937 0.038528234 0.005699003 0.04294469 0.015801713 0.0880259 0.02934069 0.010917132 0.05769095 0.033230465 0.06410588 0.0019576715 -0.009099335 -0.05924914 -0.042660546 -0.018929934 0.02177169 0.0030135377 -0.107994646 0.15450837 0.056104496 0.054501086 -0.023011135 -0.029228054 0.030042738 0.045265812 -0.03924406 -0.041358832 -0.054251302 -0.016969295 -0.067727305 -0.10040191 0.008754107 0.065723695 0.010589716 0.03845593 0.019923182 -0.02071728 -0.024435353 0.014134404 -0.0029004712 0.06921233 -0.06278974 -0.02513406 0.037834473 -0.04014849 0.06116486 0.006865017 0.030738387 -0.04340587 0.019153122 -0.013815119 -0.04380665 -0.004992731 -0.06976698 0.044923883 0.03658037 0.011169013 0.10514124 0.027117174 -0.066620424 0.062209602 -0.007129724 -0.10640407 0.11781854 0.00783314 -0.06633324 0.03324539 0.057052102 0.04534764 0.1245468 -0.020496348 0.065105684 -0.0824599 0.029997103 0.045845266 -0.095152766 -0.008107576 -0.025777798 0.025014665 0.0033798958 0.09300523 -0.0036084545 -0.0040039793 -0.0023789224 -0.007204478 0.012548923 0.019338518 0.05442745 0.015859995 0.040020946 -0.007865819 0.0037071703 0.050248608 -0.11796856 0.050292928 0.008389494 -0.0043214047 0.058110222 -0.0071379454 -0.07428099 0.044671856 -0.020826401 -9.931188e-34 -0.10147801 -0.059117913 -0.014468408 -0.019304162 0.0475984 -0.016002137 0.061900686 0.011388151 -0.075785026 0.015829438 -0.07669929 -3.6935468e-08 -0.039594807 0.032507095 0.035717823 -0.016796257 0.0003314868 0.06578003 0.027467817 0.009980672 0.06782873 0.028189758 0.035532363 -0.041308258 -0.08287931 -0.013038316 -0.09851271 -0.036333494 0.06505192 -0.01648891 -0.0028438692 0.01187181 0.015759882 -0.0063558444 -0.032074675 0.043599945 -0.06666205 0.025634624 -0.014268595 0.0704663 0.122363366 0.027713904 -0.040676698 -0.03937282 -0.018681316 -0.09482821 -0.08983691 -0.119607024 -0.014530262 0.037933182 -4.2829006e-06 0.028354034 -0.043220494 0.014725994 -0.061639864 -0.058906227 -0.022437267 -0.00018519627 -0.01317159 -0.014930038 -0.05925601 0.0028577847 0.081240125 -0.02064804 0.033730157 -0.08615112 0.06268887 0.033017606 -0.046798367 -0.002828856 0.0069349147 0.08200001 -0.004963148 -0.0014200367 -0.09971352 -0.0793238 -0.033278365 -0.06012593 0.00088743697 -0.003025257 0.0016133686 -0.051443126 0.06449601 -0.0032405462 -0.09556573 0.016478188 -0.062442616 -0.052837387 -0.025683979 0.03765544 -0.02993293 0.035551485 -0.064189054 0.04861259 -0.0039603133 -6.7023295e-34 -0.023589142 -0.038119294 -0.07744063 -0.057410177 -0.04361943 0.010186773 -0.02391071 0.09353035 0.032515984 0.098610684 -0.03470997 0.05263687 -0.0056403005 0.03057353 -0.050829273 0.045834325 0.010425449 -0.05227722 -0.0020582872 0.039066494 -0.020117637 0.06642006 -0.054357883 -0.036804985 -0.013946486 0.02442084 0.032361317 0.061506998 -0.0042554187 0.03655055 0.09710206 0.046824478 0.0075376853 -0.009177064 0.013293242 -0.010100789 0.013866685 0.03451415 -0.006289271 -0.06139909 0.045339 0.005200291 -0.1062038 -0.011760164 -0.009857581 0.080758676 0.09959903 -0.069173075 0.05598851 0.03497412 0.05357196 -0.033474434 0.031493146 -0.07505411 -0.052349802 -0.049477313 0.013172346 -0.043392055 -0.061271627 0.0017472792 0.08251661 -0.022478431 -0.04887766 -0.026127264 0.0655863 0.11799393 0.039775424 0.08874318 0.058954652 -0.058085736 -0.03961364 0.12630613 -0.03441617 -0.040234454 -0.047640216 0.004375143 0.016441654 0.01249121 -0.004044488 -0.009253817 0.0052827196 -0.034900427 0.012151894 -0.045466766 -0.032422513 -0.07394003 0.010521244 -0.040793367 -0.08009197 0.043710668 0.05507028 -0.038652714 0.025313972 0.0050040535 0.09691793 -1.7316173e-08 0.008761744 0.01528595 -0.0011637835 0.1053562 0.058398873 -0.014153342 -0.064456284 0.11874924 -0.04814086 -0.06717644 0.004851363 -0.069036424 -0.026091123 -0.056193985 0.07309954 0.004739113 -0.041426007 0.019169703 -0.047968205 -0.080169246 -0.06656848 0.08288217 0.014860013 -0.077415645 -0.05032005 -0.09316853 0.019506166 0.0043924563 0.0039127287 0.057040025 -0.055967923 -0.04829573 0.027919477 0.020277264 0.005058185 -0.058339026 -0.019241951 -0.00387732 0.01975407 -0.066817924 0.008573031 0.09707265 -0.028768184 -0.055773806 -0.032244045 0.009279377 0.028051328 -0.061521165 0.093128726 0.0193995 0.07683365 0.07422066 -0.005971385 0.08806468 -0.006945183 0.086042285 0.0014148694 0.02357535 -0.009325636 -0.055886965 -0.062340096 -0.03962438 0.121718645 -0.04396167

TITLE: Using Kagi Search with Low Vision
VECTOR: -0.032613352 -0.0056597013 0.011027069 -0.010850876 -0.006422694 0.017553048 0.06255042 -0.0072455606 0.018982224 -0.017529007 0.005619131 -0.031100366 0.007868898 -0.0019916268 0.00044484012 -0.008828165 0.067668565 0.08993686 -0.037993167 -0.07670868 0.01152439 -0.056147575 0.068103306 -0.09558319 -0.001965513 -0.005981765 0.02042154 -0.040018607 0.0571472 -0.03681779 -0.01736063 0.039199032 0.036943637 0.045342587 0.012192762 0.02827017 -0.09115391 -0.0043015787 -0.025854727 -0.06497521 -0.022155084 0.121071 -0.04737805 -0.019559417 0.0027871577 0.03296812 -0.03820442 0.0046624504 0.026916727 -0.13595101 -0.16815528 -0.06511433 -0.07417154 -0.06393701 -0.00680689 0.0008662802 -0.07079587 -0.057629284 0.074539475 0.038686413 0.08594933 -0.024982179 0.03198049 -0.01359413 0.014864716 -0.030546213 0.027547138 -0.06874828 0.081006505 0.0475684 0.06961672 0.052376527 0.019876132 -0.027779205 -0.01084161 0.0045145717 0.03302287 -0.05282991 0.0071425647 -0.03780957 0.044984348 -0.07073402 0.031237679 -0.0060623703 0.036951736 -0.07102547 -0.055505577 -0.03564533 0.023018084 -0.07041951 0.069222465 0.0072726957 -0.07802354 -0.026230449 -0.009455799 -0.05106813 0.067227 -0.01618063 -0.027965087 0.05473374 0.03082741 0.012281264 0.102381974 -0.044353634 0.004184587 0.03796322 0.05059993 0.01082688 0.006536752 -0.036761418 0.009156595 -0.006872194 0.012050827 -0.0055587348 -0.03282284 0.055251423 0.0024717336 -0.0035077503 0.011555213 0.07002975 -0.013299483 -0.057576053 -0.02500181 0.017260723 0.028484417 0.05797863 -0.046011206 -1.0680174e-33 0.015974225 0.046730775 0.015174448 -0.12508136 -0.031658124 -0.031736083 0.0027013663 -0.04470363 -0.105632626 0.038565323 -0.043334726 0.010473801 -0.056216896 0.02739625 0.06664236 -0.02463976 0.0010465737 0.027456293 0.016852295 0.04930862 -0.0027871057 -0.07471524 -0.041437235 -0.023652356 0.024747666 0.038448334 0.043984313 -0.06733512 -0.025141722 0.033838443 -0.05061736 0.039231528 -0.04846593 -0.015680755 -0.051802367 0.006732608 -0.04359819 0.06644542 -0.078656845 -0.02357562 -0.05348998 0.09039635 -0.04016931 -0.09512456 -0.025860656 0.016459659 -0.0003866792 0.041247226 -0.0468056 0.10465563 -0.009781265 0.0330206 -0.07086514 -0.021229487 0.014387712 0.11044103 0.078897595 0.027503353 0.052684993 -0.05653087 0.043322887 -0.12437418 -0.00686715 0.06508478 0.0142337 -0.055282354 0.036708523 -0.066151135 -0.03168692 0.07835662 0.013113545 0.018566659 0.04552985 -0.054268923 0.04559384 -0.035373572 0.040646825 0.051854227 -0.019117529 0.02795029 -0.04189542 0.009013739 0.042746667 0.0084948195 0.054039665 0.010365683 0.036201462 0.0071089505 -0.052733827 -0.021355953 -0.027142862 0.037998285 -0.06706749 -0.055120505 -0.01900721 9.200682e-34 0.026028346 0.010049614 0.085859016 0.05799578 -0.048608482 -0.022303069 0.1292077 -0.025013058 0.052455615 0.037295666 0.042519856 -0.0056629423 -0.013669017 -0.05138144 0.012090256 0.03205014 0.048666593 0.023596391 -0.0050426014 0.025238553 -0.06393059 0.098402336 -0.09314301 0.04503315 -0.071558006 0.047080487 -0.0073193084 0.02558133 -0.14442146 -0.018676987 -0.00027969602 -0.044262525 -0.078721136 -0.015689371 -0.07088238 -0.0105410945 -0.027613392 0.061800867 -0.094182804 0.1303241 0.05051595 0.10671168 -0.023666732 0.020153973 -0.061107717 -0.06268132 0.024845619 0.0666996 0.02453181 -0.027723638 -0.050011557 0.03610193 -0.061786015 -0.0020861449 -0.035885684 0.034134902 -0.014747935 0.07258056 -0.03828636 0.04685708 -0.0023376392 -0.11800616 -0.017348038 0.012604425 0.04708595 0.048646785 -0.022893634 0.070222355 0.05828021 0.0003522579 0.010758293 -0.017853174 0.03171213 0.08756288 0.04581032 0.040071175 -0.016050471 0.16253322 0.11383176 0.0102691585 0.039815694 -0.04093059 -0.022915771 0.10216422 0.05146932 0.056643143 -0.05544219 -0.03372837 0.05293658 -0.055169765 -0.04088857 -0.030183362 0.0449601 0.020784134 -0.03504424 -1.25035395e-08 -0.041788474 -0.0025598246 -0.0035773448 0.0009513881 0.03263527 -0.035154823 -0.046143174 0.079929195 -0.06147524 -0.044674348 -0.028858626 -0.016745063 -0.032313455 0.104186036 0.03837707 0.003047279 -0.009223153 0.021712953 -0.022589512 -0.009612278 -0.034384478 0.03349182 0.027050108 0.02719271 0.0038673053 0.074881166 -0.047310945 0.017902898 0.0038172763 0.011280026 0.0257513 0.07177804 -0.0089574065 0.057136267 0.037922334 -0.014577719 -0.020428997 0.014515618 -0.12156177 0.020998966 -0.0052921334 -0.024365239 0.0054921005 -0.015821822 -0.03676145 0.07187227 0.15707879 -0.12532929 0.040518582 -0.0018316809 -0.023979403 -0.031025713 -0.051660784 0.040307496 -0.0049546664 -0.01294873 0.107254766 -0.058103327 -0.022524562 -0.04212515 0.06430041 -0.03469825 -0.119888745 -0.026304254

TITLE: Indexing a year of video locally on a 2021 MacBook with Gemma4-31B (50GB swap)
VECTOR: 0.076413095 -0.054788437 0.08691779 -0.06426495 0.053792827 0.040335502 -0.10489291 -0.06271809 -0.047116224 -0.003017323 0.021066435 -0.03269971 -0.013838182 0.033352315 -0.13389264 0.011050766 -0.08026608 -0.02436193 0.0693402 -0.00074022135 0.0056588314 -0.09566585 -0.012241418 -0.019389436 -0.028276594 0.0486818 0.09204759 0.03435895 -0.026386749 0.0453394 -0.054407448 0.07177772 -0.027813286 -0.034164917 -0.0025322463 -0.076068215 -0.020100158 -0.07162227 -0.04204161 -0.048544627 0.045630038 0.06429245 0.10692729 0.019595457 -0.042531908 -0.012312865 0.11407054 -0.058853894 0.022804633 0.018594712 -0.102499984 0.043875895 -0.093464695 0.010404681 -0.058602754 0.06979175 -0.028052572 -0.046593953 0.09562363 0.0034236966 0.08204865 -0.071889564 0.044915624 -0.0055894395 -0.028837664 -0.04636237 0.11862216 -0.0026109372 -0.009269223 -0.04581472 -0.013121956 0.036982454 0.008422041 0.08183729 -0.07088994 -0.016795227 0.09567219 -0.03892196 0.0057065734 -0.07438866 0.029167006 -0.02525453 0.10832782 -0.036762375 -0.009758351 -0.07247425 0.022558019 -0.04802847 -0.023215897 -0.0119061535 -0.024899013 0.06213613 -0.017724428 -0.031145817 0.008750004 -0.041065156 0.0052406667 0.08470053 0.057363827 0.03481543 -0.005383556 0.03981312 -0.017069072 -0.0014551895 -0.05474608 -0.0045225928 0.039739497 0.039391473 -0.05100141 0.078346625 -0.017938076 0.058853395 -0.06017932 -0.02837772 0.00014452607 0.03172389 -0.05523877 0.0045126914 0.03997854 0.0838894 0.07170563 -0.020464338 -0.029686326 0.0156138 -0.014278709 0.041773558 0.011978618 -1.6789064e-33 0.020804225 -0.028034322 0.029601749 0.028743353 -0.017055234 -0.0071755387 0.060093485 0.00902691 -0.079226814 -0.0013605057 0.010349908 -0.0067930976 -0.024931297 -0.08189901 -0.011545447 -0.005356352 -0.03124749 0.015641188 0.03820236 0.005816253 0.0344251 -0.030651418 0.01637289 -0.039223377 -0.02578345 -0.04948002 0.020658739 -0.10718068 0.13877553 0.0128766345 0.021730045 -0.0042815474 -0.018683102 -0.10132639 0.047921192 -0.017109044 -0.019073546 0.028300306 -0.019748714 -0.022828199 -0.055819873 0.02172096 -0.017139146 -0.15814005 -0.019176576 -0.009781186 0.036873445 0.012340478 -0.0276519 0.108839184 0.065369606 -0.03662086 -0.04444167 -0.023971373 -0.037888188 0.048548408 0.024711192 0.0070453286 0.06145721 0.031467628 0.0421759 0.034436584 0.030700646 0.017996341 0.00029148548 -0.0023670504 0.1807554 0.018651167 -0.013593078 0.044657663 -0.0061786287 -0.0373964 0.0862341 -0.096250735 0.01976765 -0.070502184 -0.051271733 -0.01422265 -0.0606767 0.01877263 0.005258764 -0.08304625 0.10340907 -0.016543396 0.08495522 -0.0057616057 0.042950295 0.051966295 0.043593343 0.0051137744 0.04197196 0.0027462197 -0.04342265 -0.024944225 0.025687214 8.346393e-34 0.034927752 -0.02569621 0.04343485 0.010571931 -0.048902184 -0.053574976 0.033823803 0.05940485 0.042346716 -0.056815587 0.017976644 -0.048178982 -0.09073434 -0.00036654124 -0.089414984 0.04265721 -0.026779655 -0.099131875 -0.058393084 -0.01510972 -0.049721394 0.055716306 0.020267611 -0.020230137 0.0074263797 0.022292497 0.06824246 0.08009966 0.044052694 -0.0355577 -0.024917562 -0.097848915 -0.0018453212 -0.06397338 -0.0112278545 -0.012227925 0.042638127 -0.029666793 -0.05096329 0.13349618 -0.03917128 0.06754288 -0.06888043 -0.0045490162 0.012582877 0.018396338 -0.045246456 0.08839693 0.047915827 -0.083322 -0.005776694 0.0075940173 0.0034213986 -0.024672113 0.0021397036 -0.025271304 -0.004286367 0.07283778 0.005618263 -0.01960362 0.01980073 -0.009908645 -0.024265675 -0.04212685 0.032626614 0.014588457 -0.0034902603 -0.08869902 -0.034312777 0.03559658 0.027792992 -0.033518896 -0.047528904 -0.05704217 0.01837173 0.065602735 0.071487054 0.020418419 0.02430636 -0.0021085949 -0.068675 0.071501754 0.027407575 0.0151519785 0.031055106 0.05916537 0.009167909 0.048055675 -0.03569249 -0.06167701 -0.07488498 -0.073545374 -0.031558935 -0.07018977 -0.006652226 -2.0338492e-08 -0.08417368 0.098271474 -0.057537798 0.07754059 -0.0070780795 0.047474183 0.0015468607 0.088371225 0.11560483 0.015035077 0.0639103 -0.061770026 0.0100003965 0.02234114 -0.05372099 0.0025548623 0.007874037 0.043073215 -0.016399262 0.071054146 -0.02295625 0.07366228 0.0956154 -0.007577809 -0.048557363 0.010135978 0.05360754 0.07100976 0.0019660362 -0.036471803 -0.024621187 -0.011974846 -0.0016428964 -0.062519446 -2.3496202e-06 -0.05779122 -0.06406123 0.111645594 -0.05914424 -0.028021261 0.038152102 -0.068385445 -0.015748579 -0.03522652 0.0076784575 -0.0053974907 -0.03351313 0.0020209604 0.012362292 4.1491385e-05 -0.046549212 -0.014847183 -0.07040722 0.09007017 0.07391913 0.027962903 0.06657554 0.030051468 -0.018867677 -0.00332331 0.039707005 -0.057564173 -0.10088013 0.0018594187

TITLE: The death of the brick and mortar toy store
